784
240 
10
240 784 -0.22745751545096432 -0.24371912862892225 -0.28362314742311023 0.3185700833735079 0.23511667577361617 -0.23365165817525946 -0.48546133532161984 0.2062679065977291 0.013384007339214854 0.3828136793598764 -0.29811624032408346 0.34846921848163803 0.0396662086417576 0.2794986816700136 -0.1427998918805048 0.1016269609865802 -0.10162373606268038 0.1827712081802454 -0.4052597466904391 0.16423509126990354 -0.3739118721770633 -0.016045560740976184 -0.3656266439006256 -0.04035891744738307 0.052092008668038536 0.3925426178103587 0.12205814976158935 0.26885842388110204 0.17108547717430855 -0.37868807250544523 0.20007521316523413 0.11337911924854205 -0.1469897550343352 0.40867331856763156 -0.19227380939829855 -0.13205044973130364 -0.2579438342253531 0.2689273245391405 -0.17756307039268823 -0.2889293341737203 -0.4061679504783477 -0.04377730157970696 0.30338803129769526 0.18594318270630017 -0.28021619828026895 -0.44451549539552637 0.01109582350792966 0.07155722736709341 0.12249116831178528 -0.3582309420604152 -0.555498684911696 -0.32015597927424744 -0.46897168429692904 -0.15244667751975066 -0.2098081220738668 -0.10553105328680923 0.4823636938629736 -0.08698098129435905 -0.05760115711595226 0.17870955756111795 0.49526893161677277 -0.42002311863278824 -0.37024628423750644 0.2395074417243307 0.3874704362418451 -0.02808455237730691 -0.2548648817593054 0.16955966417927393 -0.46272302904583423 0.3245827190836844 -0.011948522836757135 0.16575828955792324 0.026960484729881884 -0.024803403480468948 -0.6238706003643684 -0.546758491220452 0.2460598392877223 -0.387891112178189 -0.12162700968036917 0.07346226226409414 0.4364019598606971 -0.16519700735282972 0.10090778437530745 0.09826383599828126 0.30634509052363246 0.4522563314941098 -0.323994497460025 0.45324935459123655 0.1764993146309025 -0.463289506137928 0.34711677898859883 -0.19104181280453536 -0.6348037237762152 -0.5486568600809157 -0.43743436435854965 -0.0704009247735676 -0.6509328940979251 -0.30181337463136004 -0.5422559822847007 -0.0015315674687157114 0.6192094405899846 -0.16603959182904782 0.026986162957466517 0.05655528212488371 -0.8795410770683134 -0.16529010901145677 -0.5147871334413852 0.14099073521430386 -0.24491639566775947 0.49687127147438476 -0.043739545185911624 0.014940051785036212 0.26667926496028005 0.17145031914735798 0.47364420593010675 0.21425403604848275 -0.34665503059934416 -0.3524001061756326 -0.4418923500779742 -0.4115548589694029 0.018468573229917754 0.3528890788163367 -0.2438570304325782 0.20479155066487303 -0.07995647918848418 -0.3659844403938104 -0.21041373651638715 -0.07663230685124328 -0.040454039169197396 0.5240305083537263 0.3334721855329563 -0.14383419784034715 -0.32822529438179804 0.16441410135803405 -0.3377348072104707 0.2379524689826903 0.4515511076736523 -0.11646772251630258 0.352415588152096 -0.33970192980694497 0.12788495449124793 0.41928719947121107 -0.25705443798564137 0.27799677403146894 0.29208443112365995 -0.3956077242345198 -0.11786444152308811 -0.012376528170218304 0.38639155444973017 0.6181555589240283 -0.18164724601715745 -0.3043773428418368 -0.6654933150028773 -0.4199013713617828 -0.9420672529545522 -0.5654771144450933 -0.396186039075347 -0.43160383076611514 0.24864280302893765 0.25056133475957754 -0.24252862147146861 -0.25579838041592445 0.4599464127723621 -0.10519703457705565 -0.0026982129570634885 -0.13129738839020658 -0.3750558770394392 -0.42358657008149453 0.1625375378173063 -0.4845995434729414 0.4548866413780479 0.3729388518829245 0.038049827038665794 0.21846396841972918 0.550203003729647 -0.35575193477748207 0.051665689032713805 -0.35666082454855985 0.4205283409513918 -0.3472217433312022 -0.3810082865840915 -0.5970772273447528 -0.7969036865122477 -0.12378909377883923 -0.06043976458070485 -0.24224108483278306 0.2639924945089799 0.011101705590137862 0.09580506744267021 0.17763424959212998 -0.2575606498627866 0.684905222835955 0.24279170950421794 -0.022974142442970826 -0.4078862677794371 -0.10541562955476856 -0.2315434660788248 -0.4470226988929196 -0.3408511692479938 -0.24319660946268337 -0.03476386858018365 -0.4522325431230887 0.012808989805008173 -0.5095554552819015 -0.6926787930202206 0.3122339379556485 -0.08227868034123607 -0.4843629726223222 -0.029997993321363804 0.14444200354092024 -0.6023361645718387 -0.6736474557627894 -0.33719234091775824 -0.29040546421106933 -0.001988287381134223 0.38926064861317966 0.27476104743482743 0.37595162396086174 0.32243679815426984 0.34084270056126353 0.07164989277521637 -0.26763277483161474 0.01388340082854438 0.3261925834352071 0.3357603759040689 0.4619784796047901 0.2122064179475961 0.3258930529268831 -0.22611679781052693 -0.503608308458928 -0.8740857110202599 -0.3816659806834684 -0.2689194609173149 -0.3819793292590759 -0.5377039811041251 -0.29570105868417956 0.07093146488477228 -0.7192580884560128 -0.9432916738875774 -0.17478011722994644 0.17256804427468436 0.730999151504629 0.8524070529532113 0.6839103116010624 -0.1235918712450088 0.48028156032770436 0.08268603706538888 -0.2524931192157836 -0.5463000188663164 0.3571073592627948 -0.47820011112755834 -0.2640987090709842 0.364690452313226 0.2748254971190958 -0.2782089071894008 -0.10714093878201199 0.05851481994124203 -0.9959173467652992 -0.9764725666215811 -0.956172358448433 -0.5073017598024738 -0.26880403162766314 0.2245910377299344 0.0012883134202062321 0.7177587760759743 0.13152840191023055 -0.8109174898998546 -0.30232863809527416 0.6464146503533507 0.33867866490587073 0.5710480975342199 0.0758885236572365 0.0956940013202651 0.8236129237623122 -0.0749034200426912 -0.0389404724021349 -0.35892588726127295 -0.29999238334025824 0.2613497038831387 -0.3144338113591634 -0.1684202929593395 -0.183187185584244 0.02470685760081164 0.20913450309885304 -0.2958702304741554 -0.5924362391577213 -0.12667510212117838 -0.6432153362167343 -0.28996748771797554 0.19478186922907673 -0.1589754778321441 0.43096860573846996 0.32580522926901645 0.029810332613623487 -0.34002160406334553 -0.09793257269097877 0.17906713050355685 0.3569977389938235 0.3626510580954692 0.32850573070042544 0.3395460285431451 -0.201824949325548 -0.02477693409851661 -0.1206412881988753 -0.3610156848189656 0.009494563513666253 0.4514890158485745 -0.48006124760006685 -0.19582892927563916 0.2641377846678183 0.24399934072089816 -0.09604265335453249 0.18775852946128382 0.21026223005441952 -0.2827688637476952 -0.11886170031630627 0.24970056470310992 0.07676455064451675 0.3077966541980753 0.24446142402456764 0.10360293719609708 0.09924510617563656 -0.6611390374918166 -0.8739541804175504 -0.27889981901302313 0.3219305532061468 0.5101715897920246 0.03300820154865616 0.028100851968618244 -0.3261303594817692 -0.253536826668623 -0.5323192066190967 -0.5001601670596904 0.06579713826342602 -0.10631254782201588 0.45547913237888926 0.3200719306815959 0.4223397269116827 -0.09504197023866871 0.3807188331629511 -0.43899105446998166 0.24218351348524475 0.27398690131093756 0.4580613885531909 -0.029552546761632572 0.15243810250817838 -0.06682893005781368 0.3720667269119586 -0.049486983590241125 0.45760341332058996 -0.46407960107468454 -0.0413051471312589 0.026651380096327393 0.6104769435520744 0.30251325636959814 0.10242116158256805 0.18667283108516164 -0.21798225551143535 -0.35564322147196475 -0.7503254119781513 -0.11092607912833558 0.36541272777735456 0.24871621345247025 0.028430653558118198 0.49046996270015963 -0.048909815679477366 -0.1809407506904652 0.020933154723164385 0.11361521356518416 -0.17924421814603056 0.5619554256683355 0.06841797697834057 -0.2052177502378698 0.46983313943403193 0.06501651881866731 0.08569487841963892 0.9082220939142127 0.18690772875202447 0.09707858563460642 -0.3110421070335633 0.2219047688527216 0.47746383585630703 0.2167253641482535 -0.5598547022121996 -0.6250338388819485 0.14015831155134584 -0.28746799027763875 0.16365441700761954 0.28644270842791947 0.10176058027288917 -0.16202891726007437 -0.22631724460462863 -0.1359230358638297 -0.1236187754853697 0.23527531958683573 -0.3804401361217259 0.2848851937361751 -0.003913415583736876 0.17497768700187308 -0.18306831632328988 0.30420420189808056 0.08923795400532851 0.49689419904934357 -0.1992000869707859 0.005298728670403674 -0.10556099161642836 0.24314873880844012 -0.09550034583421114 0.34881484846597344 0.18765909201197295 -0.07102180836277629 -0.1387174001199103 -0.449545085837558 0.0656626174367919 -0.38306966234222767 -0.23374892362021296 0.17773657280126376 -0.03947620544719139 -0.09374577271175981 0.1408708155176961 0.06280805213213336 -0.4815884258014469 0.465213221183805 -0.1242487897506651 0.2835121311641357 -0.32464453659908 0.031044950396030186 -0.207505239226877 0.3189681367289334 0.3701182550292375 0.2516493764319695 -0.0932251911382761 -0.43244383243925905 0.23626858500117895 -0.10924372997414362 0.3023628699107557 0.35100059709101517 0.9522776394081722 0.2901573477977654 0.052587849797482 -0.2456534933445075 -0.6564661112918205 0.14655319877322082 0.06361106503142004 0.01644519861306934 0.20542825035882106 0.09683567569662249 -0.29075994075945594 -0.36490117732258726 0.3866265149650247 -0.4132733121782473 -0.41146279608333797 -0.03509040111084084 0.2195336770626526 -0.2719441415928547 0.30462997366008354 -0.2039266520385136 -0.2600748293143321 0.2847796013331319 -0.15794703491549109 -0.3793048359434276 0.07661487622521308 -0.6588841374326716 0.8871019655963064 0.756791963904909 1.2810023990038935 0.406669906323843 0.005528425955922833 -0.5191106952043102 0.4690725268242747 0.11632150327564204 -0.005806982529196702 0.18355347434690192 0.15135915612765016 0.3343814937682599 -0.4237801420713503 0.17652893110372814 -0.3812578297055667 0.3710178854423235 -0.2543752412496807 0.19637827507739233 0.1339307884683092 0.2756509949218034 0.06081393507228394 0.10879385020095944 -0.30723040972844745 -0.3579145930140362 0.38113754857718407 -0.07909344991502798 -0.44366956674583163 0.44176950866420034 1.0740964877625123 0.8961181453246547 0.22111989316513886 -0.1494540593219832 -0.6218355748008175 -0.1467950867770879 -0.23770874656794092 -0.10538189802486318 0.2583605561448541 0.5523520980451746 -0.1330603251994128 0.47173191570176404 0.1662051013024036 -0.3030215573506231 0.39882564874050364 -0.4706027640758977 0.11310110406432235 0.08807858310481795 -0.019779833220849682 0.48658760360735426 -0.04852942085505585 -0.1549391030081639 -0.4794000107597323 -0.3774175857146068 -0.6836788591179663 -0.8453828677257378 -0.15071861207017237 0.4599870002629676 0.058683350432182105 0.7305754968715892 -0.06722036816930395 -0.5104802890952331 -0.46729114579679143 -0.4584860706998712 0.08682623081843652 0.09311286981648086 0.7159734046394892 0.2008136475453848 0.18104170037082298 -0.029771924430698003 -0.3559298598399719 0.23782156441348912 -0.09389037255114789 0.3678565530898327 0.47109647133811067 0.5295439971924996 0.0538623458546376 0.5226813457192708 0.33322853181504997 -0.05745882478925535 -0.1378066705432099 -0.12593524148653515 -0.5096435580730896 -1.0559122071525477 -0.13883235090971352 -0.15257632245963915 0.5347616279806964 0.4218247958316963 -0.3590713252201032 -0.2225212739756402 -0.23655969641164723 0.08950221880873477 -0.09653661027287266 -0.007229082930081713 0.18023491311752313 -0.4735149958475314 -0.45445752918656585 0.22585057895299215 0.10982885133393917 -0.26088585661757574 0.3398637746009208 0.39162862147331373 0.5639191076995781 0.18496159913821977 0.0025957420742041665 0.4097488521354757 0.4198510660989849 0.15123347583320745 -0.41171936161045797 -0.21219476998105094 -0.11324744954758918 -0.15431092176013247 0.004243590023339443 -0.6593047003264101 -0.3268850908254981 -0.09598146008478611 -0.217499252502219 0.7661388308414784 0.24113758232743038 -0.35959271468939974 -0.010965841646274926 0.6473827080737699 -0.27736134130362994 -0.19696011300379426 -0.02950519777765384 0.18532547136898386 0.012166580545451278 0.15678116707551204 0.10559348171948153 0.12730738136555828 -0.04914958783170469 0.25497399599281123 0.19600414266926677 -0.13784873268436143 0.3607207261391165 -0.10032362749058285 0.056174919017208745 -0.09386048926574755 -0.4446750008984401 -0.011106070173094416 -0.8031050893520717 -0.24378029658036998 -0.8839952953106591 0.05696812407192095 -0.13845833620028805 -0.2666579796801203 0.6479261933991017 0.3949954398762988 0.5834759334457575 0.54848950481708 0.5146784721106679 0.2555526248942339 0.35587669690585544 0.3010653545214226 0.33783222584644523 -0.17019573575099822 -0.49367578102902643 -0.29835542769221013 0.30617620397567047 0.0903319599062709 0.3239086411374153 0.6792464841723496 -0.16723175026471812 0.34180428140426833 0.347568780975496 -0.1812785022870229 -0.9130736320917867 -0.5135273473478882 -0.6014531177289001 -1.1710997352821406 -0.24955706216818735 -0.10361635207596946 -0.2986976923924346 0.3378375279065476 0.5412313610343891 -0.047072167853140175 0.026301197809850223 0.09855012185630582 -0.24790879817616338 -0.40785669180344325 -0.4265286270420071 0.0662808120494498 0.43903941503564203 0.09740920402840425 0.4858968056635449 0.1760100122877661 0.09926105572235126 -0.1458191797658363 0.5270849784430579 0.19473870459798925 0.3400976959865048 0.134798980023301 -0.36302491361551464 -0.10229438212132082 -0.6445973001584958 -0.3714951244968739 -1.1004520864271312 -0.1351452505683849 -0.7570569908395041 -0.4612141974986866 -0.1390081413879549 -0.3766659768107291 -0.21769187514526406 0.2785556517573639 -0.01062486798793484 0.36479634911455966 -0.04552076555143893 -0.034745445813187295 0.027088222329337403 0.28725940048103527 0.2131804212749311 0.16625339579753318 -0.30711909899829287 0.3151923443050599 0.29674664733462003 -0.39482891450626256 -0.5747230656436535 -0.07587416495182812 -0.32937698406630517 0.03677628205805607 -0.5556414109586368 -0.16372884584261735 -0.7959557429002606 -0.6429072530611956 -0.4035635547388056 0.03488918755192253 -0.1458213248037469 -0.9344077355955076 -0.5210984069343273 -0.4794881539656515 -0.24157376972797429 -0.6057815372426695 -0.39991016485180836 0.30107825354815865 0.06766069733246072 0.4726387708672644 0.3690268078104379 -0.08621617576554541 -0.4674989670832522 0.22761338984424673 -0.2144669644192675 -0.4556037147282082 0.07510076471782387 0.3076425112209313 -0.06409326028710206 -0.1610287946585609 0.24068713547987536 -0.017878121097017297 -0.1540812718133588 0.2551570123016809 -0.035951070194541565 0.3107669580075073 0.18216142810451474 -0.34806740690058346 -0.4134286391346298 0.017573519610080506 -0.632112209337669 -0.17462036098175726 0.11562427750668035 -0.2967949089485901 0.2604476857156532 -0.6258593540181332 -0.2802167270723068 0.44715807107092836 -0.2993098082217992 -0.16130182316000607 -0.07621194577742618 -0.1754276226340955 -0.013192994279687453 0.16526567590090757 0.1713102966204092 -0.3255856067103128 0.3307707831128008 0.27354183556690354 -0.458563211881325 0.06356866386237753 0.41750052317356057 -0.1744651218065568 -0.1261701197867827 0.4456011226934897 -0.3730791624815151 0.15566617867300106 -0.12066652714140017 0.15126075520931967 -0.47058978075455826 -0.10538620737730328 -0.5140221357419371 0.2237187930791596 -0.3068792021541637 0.12970036774102556 0.08448397010287922 -0.41199042612326653 0.3829345129229522 -0.4688317361460342 0.4980568052083236 0.46920768960170933 -0.11095862613708352 -0.08116282123855073 0.0979652835691418 0.24706709295949397 -0.19728498857871182 -0.37692486870107217 -0.04527451770044802 0.2423773400191268 -0.4106551500066854 -0.16715329781417507 -0.15988361482786537 -0.39960397040696444 -0.32888186284595133 0.43814591564811806 0.20533166866378 0.15899201361003806 -0.3481550809134907 0.3347035927394116 -0.1016632719931614 -0.17413756657765841 -0.03476968901903057 0.3003222623402891 0.4477138131266748 -0.16013684831990294 0.48864340266153783 0.058011804200666206 0.13023862084944549 -0.4902217011140978 -0.49135303283228726 -0.30378355430347254 0.06899116043790621 0.2248406265741576 0.16131640441201978 0.009088684114354928 -0.39080609523981813 -0.40330893509188076 -0.18651936735678953 -0.3105537925035599 -0.04626465737381441 -0.0720122659870385 -0.13912384682056902 -0.0735556378141751 0.04598247860753901 -0.14770930230676016 -0.31946703566363754 0.2258898135844951 -0.2974066675499616 0.3902299556760034 -5.597674058574476E-4 0.4805507254500825 -0.003670559825856179 0.033962451211249745 0.2915056220016068 0.29047158026810627 -0.11113164732746234 0.2479123178965198 -0.4092056208105042 -0.4667154806731227 0.11361613715985963 0.15299782935664652 0.4882565163146997 0.17457645688752294 0.2966906949737395 0.488671012521775 0.3865459167688689 0.3795413196816406 0.39535778299068003 -0.2471268702095566 0.05027417811275175 -0.22483905738720486 0.22618868653655486 -0.32828064359227366 0.1947335851150841 0.03891088990250227 0.4504630505366015 0.017684126140947894 -0.19140872350153515 -0.25142377495393453 -0.3550806711962032 0.3415644917566829 0.0977269209581606 0.42312004070521814 -0.2842281326216268 0.30579450012651277 0.1641014688218536 -0.14711466778769539 -0.4828280598243473 0.09566480997992872 -0.2856770805126539 -0.3379842754951525 -0.2738046409797892 0.13556551329936958 0.0900685471183283 0.14052999087691856 0.08630034908387825 0.07322968323165498 0.6239254553364155 0.5258617195207332 0.5233148986060964 0.4927354217750469 0.4035060920048909 0.238255091340605 -0.18198705384240868 0.46740078206364843 -0.24898636857654333 -0.315766940792076 0.21784232509566626 0.1764207874744985 0.29381791543722297 -0.29063247491410316 0.35575354692011674 0.24335373971457952 0.34532086022986475 -0.042986645381407625 -0.4991523443588473 0.0013744851465312513 0.11978796844809082 -0.07077023235354298 -0.09010088807505252 -0.06538967741193262 0.5715834019139265 0.702927662574677 0.11376541701685385 0.39775143191908224 0.30005276571329786 0.1711207829789019 -0.002994927829454465 0.22021035796877161 -0.11085079263057285 -0.1814061052950825 -0.5684399538158309 -0.2865769942628468 -0.0774508143062907 -0.5098035130532391 0.1972057185435211 0.4052403510156734 -0.3794332879600138 0.4538003935175607 -0.46371621042892947 0.4254505713342078 0.3940274440051571 -0.2310362739007774 0.15104567552540552 0.33121578100697785 0.09883003571728032 -0.039670994730498205 -0.022946180816212892 0.754562942444662 -0.16326358264816207 0.4763613722702323 -0.26848984518541 0.4443514995420533 -0.1683458035514387 0.45882401787735017 -0.21522694806663292 0.4268900202149564 0.2629888261070445 0.5333639582815882 -7.498776545737378E-4 0.45395198044507395 -0.4515076043583271 -0.10140505590038328 -0.22273288256694537 0.07320552129307051 -0.2143719918438381 0.21761421749515503 0.39718650872232364 0.13906466990809374 0.017305875585205577 -0.1743041465929831 -0.3887393746803212 0.022109919308736153 0.4870335588972615 -0.06422739263967034 0.7570724250503222 0.10974052077618764 -0.13714486954500565 -0.08683358081880112 -0.13419731429090148 -0.46567574152723623 0.22311524628178117 0.34180662473792894 0.41992205522554693 0.2842691996031894 -0.028850888192496548 0.9753462453604801 0.5144005641408522 -0.20677751945691172 0.2578145340430848 -0.7051143798158368 -0.011662471029551381 -0.29554204618226365 0.3024806024808214 0.4644859397225308 0.16892412379407312 -0.03951764822224818 -0.07556192347519386 -0.47990098938691417 0.5399317152677884 0.13381276485100219 0.27802478292118166 0.7877180280234475 0.1452513595151671 -0.020965690894851105 0.5342435122943979 -0.28357999727061695 0.24476469030653603 -0.22840156242322002 -0.1658776012359885 0.5195953030369928 0.7233824392862066 0.11926544513116824 0.03859759410597315 0.13008459094932895 0.15089623818717487 -0.1353903531534806 -0.06040315494222314 0.12175419585956623 0.19900205774541876 -0.40105753095874314 -0.7133946713289172 -0.007884769658971514 0.10646105431674747 0.3724840733701954 -0.3238754794706123 -0.40910215472506284 0.524244494717724 0.02436457581467828 0.45888688541133604 0.17952055190727287 0.28066948154914656 -0.13054688366750994 -0.3341837370527111 -0.5166004378081525 0.19673180288159572 -0.33896670990255906 0.13067325645532823 0.3951730541171015 0.29736166479761417 -0.25445062794653067 -0.2383111188765895 -0.9224497014284121 -0.5087804288394097 -0.72901261576905 -0.5700713929983077 -0.6291546601180885 -0.2928412109333602 0.06760282226771287 -0.74317744209959 0.36715116705198925 -0.3236051249763421 -0.368711414694588 -0.48321460157349827 -0.12655404452388683 -0.38427815780821395 0.03812226994848523 0.3491215319507902 -0.07149981012543112 -0.47143969914009143 0.37922096278827666 -0.059390862550944196 0.017675997095081535 0.008753918417885882 0.14642373680951498 -0.1122335938954214 -0.20671747157325118 0.4602432939413669 0.38320876369279255 -0.2178753887845691 -0.248412599847482 -0.5705754036340894 -0.4714430074972701 -0.25422434339035904 -0.5202560134050288 -0.5351380340399886 -0.144636368470719 -0.6203309928225145 -0.2278378483121589 -0.07917377284815143 -0.11504283855791496 0.12566984008452883 0.2811977591441857 -0.2173511278894466 0.25803380684784655 -0.3261995952296625 0.36413482064414565 0.23215598243384866 0.04418309035388163 -0.15532419705045122 0.17224757229061197 -0.5494158463365184 -0.8758044759644494 -0.12837689486374032 0.560257555951219 0.4817833291884331 0.9447527908476556 -0.13634054935054074 0.16459846035883544 -0.022574567655587744 0.31903091134126665 0.421949074515045 -0.03531518759845624 0.6466286940114886 0.22837342795893753 0.10812634587453801 -0.48392567104449635 0.29765123481501377 -0.46185235247742207 -0.28290050910225517 0.03912951798412406 -0.14785127873111376 0.15908679412184257 0.07284570707652532 -0.2620236531468335 -0.022727512952933317 -0.2711339098902009 -0.21298442583398708 -0.6178487289251675 -0.19120667161845414 -0.10785965740375937 0.22083829090308799 0.7364054855059884 1.1425377174749083 2.3059404164330863 2.048521111989478 1.5620396594990351 1.5139103049084295 0.8879327372993027 1.2270432559872622 0.653988015987851 0.6511780667668705 0.7595877928208403 0.10512331725323391 0.1383524442064238 0.41647741158004725 -0.12814919788845114 0.0884205492590817 0.20758350494028976 0.028938627921216858 0.003258699740342038 0.2824712869722984 -0.018435403744405394 0.04033656829862007 0.4466445955534736 -0.30040959282034074 -0.7184202927200014 -1.4007795852005554E-4 0.2503499690846372 0.47514154822041543 -0.11512212070375522 0.47155408301756335 0.6782949358914641 1.6002313725239299 0.7538906315769286 1.0984159292783486 0.28224247825204213 1.2094079330183451 0.9926841818483236 0.9333814084307323 1.1085884067577103 0.3384591800981628 0.051337680992119536 0.3321307315473194 -0.0912157603042271 -0.3937226846153865 0.4062961947888888 -0.3056011759396673 0.38603864060481646 0.1732791259225492 -0.44085182874376294 -0.11319145677133559 -0.2706820409986834 0.22690947391984134 -0.23883509189226318 -0.18027617556861944 -0.4562737661935209 -0.2550995825566836 0.18168434969478595 -0.11780737742772869 -0.38188696448460396 0.5529955865360114 0.5580889719476053 0.3564653095759418 0.1348398559910309 0.2152239411190039 0.16935316840147815 0.3110002398109435 0.6628646896946132 -5.752713755207623E-4 -0.004395732855632638 -0.05082818228571453 -0.46802347854193116 -0.4709720060046356 -0.2118579045881823 -0.018977276619936232 0.4356739939779266 -0.23698006376512423 -0.02705983694357491 -0.3271362001853272 0.30561054286791006 -0.11430869394613162 -0.30197918954902986 -0.10860805629512078 -1.0220616618914515 0.1772378132277426 -0.3444851591792194 -0.4752319085718819 0.3119505702997083 0.977801002260641 0.37237833088487554 0.1718483171183958 -0.4783159540006503 0.5362823887076552 -0.24377081887694052 -0.05100342311474253 0.6535452367149206 0.4148324891384003 0.16410886286175952 -0.2991132944272568 -0.1491966788467601 -0.3945285530313165 0.3202818212281072 -0.32312604067223605 0.34805883144678607 0.2869538366776218 0.19314030316573902 -0.23411636017365206 -0.032244482213690244 -0.12749583067114684 -0.8011667973731716 0.1808656854070984 -0.4153071319101067 0.045105773422985294 -0.8319997419952393 -0.15815883001153902 -0.29677489385969597 -0.09347861938296603 0.04899085970616552 0.08805063859373884 -0.38775477144770853 0.293944836099279 -0.2651166449093466 -0.364632953819461 -0.19605070992932838 0.31306524538091424 -0.4642852356120346 -0.4949004293528742 -0.18125553382721465 -0.3321645580478644 0.29860849850622734 0.33080812125657766 0.5854125819477406 0.6831374584975197 -0.24910287778105064 0.5943653370886031 0.00805953153560208 -0.9269438290090642 -0.038614194672737995 0.06337526690525262 0.0052665452236523155 0.18789858462533043 -0.6674481504002876 0.2430085167523185 -0.25852829727818877 0.6067825420656671 0.894017814964304 -0.1388837008210342 0.09349347332571195 -0.17514795231262276 -0.26598022291832674 -0.2485964028092168 -0.3846037104631411 -0.2567143177309647 0.4268496069577762 -0.12161048094133736 0.10046879244765639 0.009086320918518286 -0.11597072644464648 -0.18689514488107736 0.28532776593374626 0.6029192253704672 0.7596634426048983 1.1111117554122678 0.3791206672557242 -0.08126499792194701 -0.39484011139592085 0.009831102337616787 0.06597923264671378 -0.5337942656782169 -0.0870334567194297 -0.17349076710120118 -0.050629229826841066 0.2822658328166152 0.17318717107712234 -0.45751599026177253 0.10929243461456781 -0.19307529907026477 0.2878260412801685 -0.29400863079323 -0.17160151587053218 0.08925337120909209 -0.1874688030681415 0.4299332701866034 0.18900945812971615 0.4178956997070413 0.4166262015095543 -0.17768599172859814 -0.4668277438690971 0.35544893306478376 0.14106453045770773 0.7396726028605134 1.5549393000032687 0.7338434296773668 -0.1499175469540032 -0.13225775192089742 -0.09437326014086113 -0.09232032498410621 -0.4778617481786279 -0.24031628927037105 0.10864791314507498 -0.05171432364925503 -0.14577869055976483 -0.06996310448372156 0.1307473681871907 -0.0202437764780894 0.6073614441999516 0.6437513982956916 -0.38534460372389034 -0.47377412883444375 -0.06247733168244285 -0.49244057071886105 -0.22704253299977484 0.0035054763416459476 0.4046971677666801 0.3016247310006568 -0.28216687913283023 -0.1851069840987336 0.8942594436808132 0.3302118167153961 0.6546626110515303 1.1359470098206947 1.6688251356665755 1.2472627086639148 0.22881267206007352 0.4066985894863906 -0.46767381875577074 0.043183523995511966 -0.04516566521282155 -0.3051941458839646 0.4725041312824091 -0.23884479211452075 -0.19806071605307235 0.10876745096101678 -0.29928940353636935 0.03735099366267743 0.18616286567007972 0.06255650752579844 -0.1096871296699548 0.1513994834479514 0.35364796264218046 -0.3232783378285302 0.2294516766968919 -0.3294527357931827 -0.25636133262533506 -0.24136616826463456 0.06305106706371848 -0.06461927995146373 0.19502905129734313 0.8649234515577879 0.8298741333899372 0.7397222055130397 0.5175704366851408 0.27523634307437467 -0.22072429216482492 0.3713130752291752 -0.21546396161296166 0.3190465720547843 0.5243494140914257 0.0788196187680288 0.3065555622439839 -0.4578432472720054 -0.2151298496710892 -0.2101687490392157 -0.0977003210789762 0.006133272928138245 -0.2881305675694827 0.24359633051867266 0.1123477299591723 0.4193265427657364 -0.3385993803735376 0.46451641364984936 0.3872934416676155 -0.419440425951223 -0.20541753725328873 0.2964070815755996 -0.33967422583876405 -0.04147017415956264 0.051257130232179746 0.22619432043020624 -0.25362603132369094 -0.3669003082613705 -0.17841283451855028 0.20159073649702436 0.019991179635976887 0.2513708008115299 -0.02640783240360692 -0.46719527329948835 0.27631636404458276 0.30501741454081316 0.4242306388228907 -0.34373852505250296 0.017912758738848702 -0.31103461851768194 -0.32639684718047435 -0.044173130386853 0.027442693958479425 -0.4640315342035193 0.019112446345167854 -0.05238318373989055 0.5864047676561936 0.42093257243024285 0.3241977296900337 0.18219721224785418 -0.7463936107024419 -0.46085226591500306 -0.41328185998732564 -0.17776096159967955 -0.24970616142562993 0.19359975303371346 0.16209807776848667 -0.13402224185209122 -0.43161759082016066 0.6294861848287552 -0.3588578627864566 0.2547262724996264 0.5689107481689841 -0.08436113161495032 -0.060288479199074686 -0.24226494385176442 -0.3309814467634169 -0.13813286591747084 -0.366630930009637 0.4326146081685174 0.24162542115351093 0.20831532996190216 0.2773719424030869 -0.24331877726446616 -0.39825893688943986 0.55865701018287 0.340763294180384 0.04519010787201931 0.04297658120628028 -0.3099790944034332 -0.2861577472728366 -0.8689245434870155 -0.36440170855956855 -0.39220741951767096 0.6062084469970244 0.08834125366772169 -0.08421399051724446 -0.6440910817011892 0.08275062130864957 -0.14700537169662725 0.353464070347236 -0.39869484794455873 -0.08584659150541547 -0.3306649591425479 0.16415381828681422 -0.03778809299989607 -0.10785990364227524 -0.2871935606712188 -0.3209173824680056 0.3011834718506414 -0.29705752821003134 0.4515184117273552 0.22965713515661104 0.151279937378805 -0.3682237881301603 0.12177313678281534 -0.3960914080656377 -0.1653031159590067 -0.5483200198684587 0.06508963564795861 0.08701007764191335 -0.04038812368285521 0.09328897930498764 0.33300741508611925 -0.06973357430470217 0.5462375516695248 0.10371794994162851 -0.20516798039416864 0.38671150568929175 0.29213629181799816 -0.2293556069570805 0.19828821405493258 0.37755016297378413 -0.4444108826803791 0.12441399460923017 -0.08843192618892037 -0.08731736945950663 0.4144623897701485 0.49583080844150884 -0.1938533658727454 -0.3171491469855424 0.3524074534894898 -0.24232888956803253 0.4275416545401973 -0.1898588355081679 -0.07220263034871209 0.1167710375866982 -0.18184416935287126 -0.22916612747247458 -0.0201068025125543 0.15831694184124823 0.44158108107516564 0.010424631107273916 -0.027982245445895927 0.35725271423315835 -0.28811647447281563 -0.03735086415916175 0.1743447841003361 -0.475396670181808 -0.14877748765503665 0.05469149300299638 -0.5078945949198044 -0.337044170375504 -0.3498312622658974 0.28116294786750373 0.18980705220927985 -0.18412383982031566 -0.4400534210509538 -0.12533140304269955 0.5771718423818595 -0.20270421674602057 -0.2810669629008236 -0.17454276981777886 -0.4606074604531942 -0.03889730490826685 -0.7306537158515557 -0.08179360925228235 0.25138168820982953 0.720436567288518 0.2327488077946615 0.33742791000655836 -0.437385419869707 -0.1744283911053674 0.1625015153139976 0.20863885928226591 -0.495646332321965 -0.4947744803800937 0.15401028008181564 -0.25748444479826577 0.16734281399385403 -0.04649203865792391 -0.26433132736190257 0.25631769791457204 -0.1351803072225939 0.06358328132238467 0.048446080137626746 -0.47057301812381097 0.001480197661096256 -0.16747999564565655 0.2958307661727639 0.3990185701010177 -0.21453226189761856 -0.26975267482210413 -0.11730187661010684 -0.31080032316917433 0.007365522975964883 -0.19524939059404328 -0.4167234652349461 -0.24749979566145366 -0.3138902693119931 -0.25242454725238167 0.2594138211714212 -0.2138883568726131 0.4593026519477414 -0.235723062134223 -0.21195627690071606 -0.177871219501952 0.2826661787630165 0.31837708918892826 0.09060663579591588 0.06018514962712873 0.07773731130126338 0.2762984227438069 -0.13757078489982894 0.15592684082171235 -0.11121622910318174 0.0865879743326893 0.0933930011234488 -0.3502873985779183 -0.2532503940841818 0.42024154934099833 -0.012676960055011892 -0.32854243334361705 -0.3193251522328162 -0.008161042852724409 0.08403493878116355 -0.09127920939771902 -0.036309573234482355 -0.39680801864747506 -0.35518098091169564 -0.23884719954984954 -0.34400661380991077 -0.47011007257873405 0.3114638238342071 -0.18786704514498387 0.266746307099318 -0.05714696232822991 -0.06731259965056152 -0.4677647869179772 -0.07788082734829505 -0.054286825988520804 -0.2474479616670885 0.204009309859694 0.47337202196178163 0.4638475964900739 -0.2343057260821365 0.1275727379779329 0.0773728363869789 -0.35582444411800607 0.3556666582261696 0.06499491626764636 -0.06337798878770269 0.4069940568345988 0.17775025811958534 -0.06824173736098177 0.32426411133672717 0.2873410398996774 0.29176715607787496 -0.25022645254982934 -0.19249813781676034 0.4632065187491776 -0.45510704963202353 -0.16501045931943836 -0.21019284203702526 0.11794644262842069 0.20446925457288412 0.24655693803778655 0.2515343077241363 -0.010455485075142046 -0.1591838016571091 0.4813705759916038 -0.2388276138643345 0.19337340142482123 0.45724882857886795 0.4192730600830139 -0.26796945345120654 0.30670432684715565 -0.12032933672642919 -0.4852047665634561 -0.06694178691072421 -0.33123668348532254 0.38792902868445117 0.25912360667352946 0.24657349782484628 -0.1032625604153313 -0.4030819159123213 -0.15104564378365895 -0.31600595298367534 -0.07662957563990722 -0.4186728252744668 0.14691649400697737 -0.4210470817415103 -0.2674343097496689 0.25305150305697177 -0.12095398419726233 0.234249012847344 -0.0062776836934125835 0.03657685802734245 0.07601392070668635 -0.4590970031444517 0.43578882998669716 -0.2838204714990936 -0.20382435836927856 0.12803025375882837 -0.2039118908304186 -0.397252080391734 0.0053756278411471806 0.32332440439944665 -0.30259584181592913 -0.24693550393617594 -0.3907726289658742 -0.06195030778187709 0.0030217217488941383 -0.20409954941072672 -0.28262009117788944 0.3149099755474653 -0.0434410793611467 -0.034981795380067154 0.024887177278317296 0.47286884616294567 0.015707057341048825 -0.2402380348426777 -0.1754077223311703 0.15791435018185396 -0.2954231606381737 -0.29026839849591585 -0.26025716230771684 -0.023779567931448094 -0.4300066864549902 -0.06907273159029453 0.3003495121072125 0.449443767523929 -0.07036091580221096 -0.1282787506654147 0.6110989329237395 0.12039160589530053 0.23311607206645096 0.2536662497556844 -0.27130056430647587 0.14240387651355024 -0.21504891571667226 -0.4926865333479453 -0.057440459891131404 -0.2963515508347039 -0.3491413145617692 0.09826527900077961 -0.0925043910626027 -0.27303362078160953 -0.47122122881359646 -0.08015552323930192 0.06426719619767751 0.4842536472451753 -0.22897376459074104 -0.3470989878120001 -0.4908370356925017 0.46005125649802503 -0.2749410690321174 -0.04265412537189429 0.4329941749645044 0.29198148483525077 0.2616930872483415 -0.24596902246759558 -0.11283711270073493 -0.47748575657851045 -0.4795303036931136 -0.4415718760639877 -0.6591017554911205 -0.3864373417109626 0.007913486109395611 -0.09390571417651039 -0.17893840587159995 0.5059486165528769 -0.38801211745731323 0.006444944816011257 -0.31649606705985567 -0.4384157295209903 0.4042037484797375 -0.12785361115018068 0.2825113835379919 0.15374999719374383 -0.26359777199766066 0.22016613469297616 -0.2982545006903974 0.728080564015086 0.894429573899575 0.5149211374071994 0.5939077549859725 0.7501279312032746 0.13092557925856071 -0.09945971176521716 0.24324360605072848 0.35663466852451914 -0.3106147467413875 -1.3694166806012458 -1.0741889625016954 -0.8907404296390371 -0.03766414216309478 0.05240580174332883 -0.2866765042214001 0.1500226981412787 -0.445695767256369 0.055612092709470526 0.4660009537704299 -0.03189915741965988 -0.2034558594684351 0.37903307755992693 0.23432209375934288 0.14033375893024258 0.282506102852942 -0.2538528088471868 0.4600233865354431 0.607849869253165 -0.06255359665671843 0.5203346268246339 0.5318082420581198 0.44408022745247316 -0.3434150430456094 0.20638272161948956 -0.2206721972739987 -0.8316293431944064 -1.2220323299143072 -1.282535546508509 -1.099108870219736 0.1627799345123343 0.5674189125164347 0.11456783930363275 0.09143718920326994 0.3774072611360721 -0.3127579655819206 -0.5258311548705069 0.2276454982041004 -0.12399068857599166 -0.12199659384985843 -0.24893007773141915 0.3624407205875184 0.2522984619410981 -0.23332565789530146 0.3082786811106642 0.052534175712319255 0.2655089400956525 0.05543531686862118 0.3291538407445206 -0.7368107292329917 -0.27155373625943025 0.6999177318211476 0.1907601590970983 -0.3143600664539101 -0.2928234066542193 -1.224673241248942 -0.8765728525893028 -0.8430170954784106 0.26202549202084635 0.18750863343987328 0.19579792549731836 0.19294444040753658 0.151894490245312 -0.1289071354617064 -0.2080721934933693 0.3435464468226195 0.0817394013841125 0.3123221395068211 0.045311322471689834 -0.3348550937319787 0.22150198685495867 -0.20076332993931262 0.5712602966352591 -0.14111589655697698 0.13607939398625093 0.046594894185340116 0.28518647570357947 0.06034763338059827 0.4756608879709471 0.012133593940527493 0.2702094917721556 -0.21484511101988793 -0.9381731012237995 -0.9896842487266971 -0.8986851164958248 -0.07605100200153356 0.04843022367561909 0.6272513489552078 -0.12617999736716376 -0.3067084748460231 -0.46255676139189567 -0.14696836039762848 0.347501538140952 -0.04166261446350656 0.319517511155413 -0.0975992737760831 0.4473627455080327 -0.18830307720883313 -0.075821025717103 0.5439517098744425 -0.060120237793933676 0.37891473159473266 -0.10678257954350981 0.1466855147244088 0.8411649316311361 -0.18142904127614895 0.378631445328259 0.23424504503024077 0.04338440013369026 0.5300050259009137 -0.28360492649200136 -1.699346737900838 0.0016518762625711903 0.5647648130709767 0.9115626829320425 0.5038353714825808 0.15778695058883882 -0.006891594664689177 -0.01375959410960806 -0.2993715768866787 0.17968746107257685 0.07698827241684916 -0.3223061024437434 0.1972814849082514 0.06842217190879342 -0.48955843015272515 -0.0036946290408959447 0.4485841184624981 -0.012631116573881895 -0.057017016772561074 0.40521936724359287 -0.6744343832153742 -0.40068730932467883 0.1060380995420406 -0.2713798362733675 -0.58447607106332 -0.005786275125274687 0.18966723395593266 -0.01939343116088372 -0.9103216589078809 0.13807335297888768 0.4602697324822531 0.8865203039635648 0.5389379668252838 0.3919962398061683 0.2549383335645023 0.30221310943326457 0.08533953395886573 -0.14455261843879916 -0.6022777767296769 0.0662262844940118 -0.15508608602160734 -0.3373103411451586 0.12706090127906344 -0.2980264390843531 0.2750839963813844 0.5059378680338542 0.14265834403298044 -0.07620083693522368 -0.23123689084387256 0.5451617873990962 -0.6222021217136929 -0.02952906385112877 0.023539158883932355 0.04718388625079512 -0.17582964968184348 -1.086839213182024 -0.30487499860410333 -0.14538443232212178 1.0417566694258813 1.0664692682405432 -0.11752186224785265 -0.15927511687634882 -0.0984364537192839 -0.2262939187053803 -0.372388123893738 0.12985870363633986 -0.035569373511024065 -0.17850583064389527 -0.31685516235447625 0.047342762951377855 -0.4485235421847514 -0.22114593758543838 -0.25404240706011494 0.559068263800112 0.13973360448160133 0.03394403650276865 -0.42970126572612755 -0.2224625551850288 -0.42399130260429374 -0.36365778051946684 -0.3075130514073775 -0.08453179146378033 -0.5260527267156945 -0.880550343689705 -0.4294354084977927 -0.42354470021116314 0.1273329798489896 0.2528324081605768 0.31126287109016865 -0.48990208948402136 0.28136341113620605 0.4561426678164296 0.08530066311611816 -0.02996146866704881 -0.2701267236739414 0.19261488999893026 0.25253379205576015 0.37585956904680184 0.3141485158860565 0.026399059096731785 0.24046104463122786 -0.16703701657549125 0.033520426759561045 -0.6886500825558778 0.021264301870740177 -0.09758815103281403 -0.22598303696995015 -0.7310668148391317 0.04831145022778539 -0.36835096224085667 -0.8858866550950083 -1.135751980974812 -0.6101048981951921 -0.2504876772818885 0.11279207026653096 0.1908865218051996 0.8441332904490967 0.0334843971537657 0.17297520505052244 0.06592954569601293 0.25871246783124985 0.17195929448753394 0.4954495074075113 -0.01300577173408604 -0.06907490633235698 -0.16334993085245825 -0.04693517732927301 -0.33033226404995647 0.2683862286122443 0.4740966345355675 0.48008744283738136 0.3986661687265765 -0.2582704293442506 0.1640268344709365 -0.3994974306018251 0.09053757751469312 -0.15301817915865884 0.10932864401443589 -0.9893866283459738 -0.8410512947524612 -0.45532790189132777 0.4832489619799472 0.1545630505607965 -0.012616694766443858 0.386449972627883 0.8070231588492363 0.3155277158635598 0.2595324094987087 1.0126205270956814 0.6776539465146665 0.19004478207195363 -0.21934595599778567 -0.06890393993224875 -0.32546156053063147 -0.36849157483772 0.1748711035844057 -0.1380165006726761 -0.043045382467273755 0.4932063131079556 -0.10403760517903533 0.3689855461757116 0.2892729506864147 -0.3558429526686651 -0.10963851350827959 -0.21400278225058078 -0.7382506738351193 -0.7702366414287006 -0.9247846516935179 0.34301911581874334 0.049745581613351866 0.9570715378339517 0.5580129405353936 1.1718800231884532 0.8664636575679283 0.48669915447798956 0.7687494144126902 0.8417456315413145 0.8856081750870207 -0.2803942411557691 -0.36272828782734123 0.3096399811156412 0.24253307895069318 0.0053567368020319694 0.358248678808774 0.4168388247798676 -0.36946573548306433 0.026463930550003203 0.24300354610554972 0.23756560586385414 0.305219867988179 0.08117055723702322 0.6210124686414974 0.5029395598470254 -0.8301293179139607 -0.6796300030858077 -0.4743852093983393 0.9614394082721022 0.24690930217769294 0.443243790852463 0.5939333332723155 0.48594441648518544 0.6101968622516537 0.3911323365764144 0.5649874548829005 0.13011046306293364 0.17466721705095728 0.38756688927302113 -0.3079209364162394 -0.17251152076880433 -0.47289602243205 0.3401046399544736 -0.32808104681619066 -0.3952001406845272 -0.21050278669622624 -0.5229154620108679 -0.4486151648221761 -0.3094574771115611 0.017890611736126133 -0.5379599601921444 0.633962571842431 -0.025853349449518198 -0.4981666752488535 -0.6963979766979693 0.18998233685719382 0.785523596827112 1.2498271391766458 0.3475552482644013 0.22719059014945264 0.8260654335187313 0.44316328113851966 0.5247738718804512 0.2959539487122386 -0.8082693684842528 0.278581490759364 0.046701010139651465 0.09089963962866301 -0.025025828252765215 -0.3061796007857509 -0.12194592459867454 -0.24667476008207154 -0.3683322437953634 0.45577908172491544 -0.33370388414870783 -0.3868069848007572 -0.5348148319945754 -0.07234040337609736 -0.6013196328762173 -0.6095193594988663 -0.28750643771715256 -1.5253224732771744 -0.8610571295672562 0.1726275583360157 0.2030110056862311 0.2950805706345372 0.06270862852365162 0.06524236102666406 -0.03835313002202254 -0.5804783157998538 -0.6398825693414417 0.006823151288121883 0.3433782250258915 0.2985986005017746 -0.26626236917584395 -0.24308009854363122 0.3793940562683818 0.48150007316009896 0.45550112469374693 0.28221654272466373 -0.21581403910962044 -0.2432854545258688 0.08450975108192751 -0.22295011482530358 -0.5620002897465302 -0.27276082777326516 -0.23794188322727597 -1.0833820543623227 -1.0307280591576227 -0.4407063073654193 -0.835714477160975 0.5304725535754448 0.6264490441336239 0.34004002871025885 -0.11021048216892265 -0.43016663757993223 -0.20265024992364852 -0.7195967603052082 -0.94809728723117 -0.36016384262073337 -0.7875937298918416 0.3228208700739341 -0.3856411832205634 0.04007527607412416 -0.24082531158734083 0.4721713021974243 0.36992351004137836 -0.18531374466306777 0.06579459627627204 0.031651201234207046 -0.058146531520388595 0.02529171526232214 -0.8167982497600131 0.032435427625401254 -0.7704836604339624 -1.1241851871058508 -0.42156849368647326 0.1583925793001155 -0.45484424770060844 0.36344489663135504 0.3198145611779898 -0.6982864569835031 -0.3567988412119159 -0.2658062078948685 0.2760119214577228 -0.35308565219437366 -0.80546824395544 -1.1041363245935127 -0.7970217260950007 -0.31872571471674666 0.10220523479795021 0.11979809384052321 0.42057824915539394 0.43248047519676036 0.4971680942595902 -0.4822939801397768 0.19275874977639773 -0.3839881612114575 -0.08176394457849308 0.21780089217064266 -0.6729628676590028 -0.965555063949019 -0.9813879605613193 0.2437180390786695 -0.17828677274630414 0.43324597488177535 0.6438933654798047 0.507836699934038 0.18767703600615784 0.03347868845013716 0.25859607690395603 -0.08287551718949243 -0.3274472329779687 -0.5375486006072945 -1.0155036583693677 -0.06052945171180447 -0.8463876067381073 -0.5132187467938647 0.30932540755177107 0.12062263375948365 -0.4281023307992011 -0.4660989507652076 -0.3413616192250603 0.29333637878025143 0.07224065456475585 0.33798711918448104 -0.4612654001066093 0.324344424961379 -0.4433145134155378 -0.7343103366226429 -0.16745227968995188 0.3806882236300992 -0.3936207032772072 -0.28526797994133574 -0.551944397711659 0.36325492392870384 0.15950104083427355 0.44457528232540655 -0.5529813925143904 0.456934089698794 0.16517444775748494 -0.23275400739349783 -0.13219304993996328 -0.524526811059085 -0.20070687630307665 -0.3394331547942709 -0.2148336453081379 0.3261128607448271 0.1305732918390993 0.3767445146426116 0.23848201368883615 -0.19691105702797396 -0.06739571552272904 -0.4239062413524505 0.03539800869083685 -0.4121826792350745 0.40894211317147394 0.07861084862998105 -0.3148874833276477 0.47884908438922835 0.2105802761235388 -0.7252475750971639 -0.5576382396810741 0.25454136649608616 -0.4119225832823073 0.0325394088589669 -0.081752561820434 0.10631441201038168 0.13477092059520848 -0.17857290553659566 -0.1454240860274256 -0.1106827332283418 -0.1729324918084627 -0.609365442589848 0.38824519601767155 0.35148325224986476 -0.3617312270398206 0.16895001977992252 0.05077827766658194 0.4739078007880201 0.4488066889751167 0.4176365376492456 -0.36993222835595235 0.09026507200043857 -0.21249396961468991 -0.17435632715745475 0.3677516536248044 -0.36874730854559246 0.1632342044172638 -0.20666737424625403 -1.0855445739884697 0.24726876101419118 0.31205000836465036 0.16685627475404768 -0.39523840497470847 0.16266980839439638 -0.8418051528827714 -0.1695417800628051 0.05748256718555241 -0.6131468554302191 -0.3431044106737453 -0.11193394829987079 -0.4635462517504933 0.35467144961147645 -0.42505568996072984 0.15581022792048915 0.45672559765179155 -0.19415364200050694 0.363727037306085 0.3287049255425189 -0.42941327253709977 0.08889296628464481 0.3528598655840583 0.5501750838489478 0.12026802486108049 -0.2745631870176528 -0.6267908495286612 0.5195282484357872 0.4681740247183462 0.515899903171285 -0.011573724334209409 -0.015826286953490917 0.21237503101406532 -0.2958911754534897 -0.5074035130901994 0.03450826999995722 -0.6048626840917705 -0.027115746366309517 -0.010848995783057098 -0.4398437313388553 0.17688605340532876 -0.1699050560107944 -0.15765972428436195 0.29965881843629716 -0.26817095996399853 -0.07384471370870144 -0.06067830670474761 0.04890721144315835 0.25508740654413853 0.25059649908795517 -0.4467732510392465 0.47120702669410114 0.5047508080986999 -0.5249354418601939 -0.09596549289279961 -0.16544239594199125 -0.7052885397800521 0.029844809004162576 0.1121007023164898 0.42722119255247476 0.06251178405738225 0.14946906068095897 0.1792135840168628 0.5418702881149692 0.5361684177246453 -0.07724811618546527 -0.12066309745828763 -0.365354903368783 0.39957455586447244 -0.3054218269555833 0.4880360181303043 0.20955798617727772 -0.3169121886746487 0.39397002226325906 0.44113652808792203 0.08310423633857134 -0.4577701482477577 -0.10843343975100467 -0.36180297995101796 0.3245067092225854 -0.17429374614808535 -0.12294745729008823 0.19474082347717994 -0.33742098358530803 -0.12179709308346458 0.18698495971745682 -0.10371263265611676 -0.07488308409895239 0.2758485590354854 -0.27109031885778534 -0.1605312767474312 0.09990690322736408 0.016923839949545407 0.42156700116228585 0.3583455002488609 -0.37968347384457196 0.1549510064694516 -0.39719409270551426 -0.2958370703512148 0.32098594160773297 -0.4838172417375442 0.25499826881805476 -0.16355093163514012 -0.36463400128254475 0.36451725703540805 0.10144097577825462 0.016022432986983692 0.3325072958643106 -0.1864514421152833 0.21404107138973116 -0.031096163764058438 0.10162644686048583 0.2288369455418071 -0.24684916803761914 0.47854036014086315 0.43491858100339 -0.12445151014394285 -0.06523456951806988 0.21317596398588912 -0.23963015681338762 -0.04088656572586552 0.3695651091704726 -0.21795223239988804 -0.1754301056980807 -0.2748071920972818 0.4894980065657717 0.06981476796940977 0.32552441053530523 -0.04733613106219248 0.34620749427901387 -0.20018776834278418 -0.20453241611459505 -0.3606019836260552 -0.38927829036329015 0.33303358668673505 -0.29273363811250946 -0.04613400855514354 -0.16663761204904565 -0.13016246751882107 -0.006976776797425482 0.41966114225065515 -0.024149661270002946 0.44943997086190757 0.3747235248369479 0.28814314723727147 0.011464656741798472 -0.04942639247939537 -0.35433256756577464 -0.45933550360622183 0.30003607610876837 -0.42702045729223853 0.43957417965101236 0.32647885419383105 0.37765709520525204 0.043235857379120946 -0.1494538649376903 -0.40286222813608885 -0.14948756773539806 -0.04475817425919937 -0.028212407319468724 0.3512851466459936 -0.07260710520212499 0.2667908659622289 -0.22761476755940013 0.3780951341218915 -0.42504318341045655 0.2748273676023826 0.40541836460168723 0.25811085704171416 0.4814425383765237 0.17811359300696497 -0.08378574218111684 0.15577174858590034 0.12520977432827407 0.4291693263148971 0.3048283470371996 0.16537789434908542 -0.1203953783872906 0.27013394644454236 -0.3667244897580186 -0.011519653890196692 0.43309949197277137 -0.2959915880015697 0.3889023720341357 -0.44554476396105186 0.10146258255244267 0.36840417803645203 -0.4290536187673854 -0.07079178277007547 -0.020102197208600965 -0.08194186178990513 0.09411630151957555 -0.21501143517284643 0.05336012314191618 0.30722966241936245 -0.028348510024292978 0.22046505640352793 -0.5927487859510515 -0.7494324545713564 -0.11362214512386117 -0.5154401704404983 -0.16085339917272942 0.5441530342526649 0.46554010797179446 0.17098223065996265 -0.045232935617274664 0.6471561438910821 -0.08597426044897459 -0.359898790938846 0.26972302436599843 -0.24714931696084966 0.4786103948054855 0.29689867083581833 -0.3620702900939314 0.2888055696030213 -0.07221224765205349 -0.10615365987372954 -0.009315670475819413 -0.5284221714891978 0.36366380869005854 0.3115955224187808 0.3916470314161087 0.15391091372809074 0.0996085983590959 -0.6731146855903868 -0.8410450129801735 -1.3446384414025758 -0.5957555852930256 -0.1060770643594691 -0.09466986850292664 -0.23517148975664479 0.10580009509552807 0.502925994868848 0.31742037569853787 0.17587508536132737 -0.1985485348378916 -0.5477479166239895 -0.4628963450399738 -0.2839718373760981 0.13254099180519208 -0.2186303731192879 -0.4912046544789812 0.14223801686792625 0.4892229595251724 -0.369159368666067 0.5107297558209953 0.46496849460065454 0.6969213712716674 0.7316908150822845 0.6902702838752567 0.5843623004369217 -0.4737336121798482 -0.12660774572207692 -0.8550899075898835 -0.29940562963604306 -0.24579858589853237 -0.45514510328400115 0.4516195498345316 0.39703578920919175 -0.47501731424261096 -0.21039686321585252 -0.07653082424650773 0.30338774504499 0.2584942449514901 -0.17312374539400835 -0.42333140591435947 -0.45767662930209807 -0.4411360317678684 -0.18342370510558648 -0.17236171449765614 -0.2201078805698611 0.2549400911912582 -0.25318128822398567 0.11049825111877078 0.1270118674375004 0.06056299968848304 0.41243006940085236 0.7470806707483357 0.784911696606079 0.07116293530767723 -0.11684626657395594 0.6292065003074667 -0.810791204158443 0.05862921093755052 -0.11800009181223578 0.24180958080938791 -0.12865043569877124 0.40346457283647996 0.46818907672392196 0.18761104100760947 -0.35170168481027847 -0.21425484785997875 0.23752356855475132 -0.3752674474091767 0.11868177157079557 -0.11703970274677154 -0.31977899331271176 -0.39661578176492457 -0.06280618987543088 0.41441494087960373 -0.1565918068957019 -0.41961860094044956 0.13731919457193384 0.6017390806001685 0.04073283518895281 -0.25504791769750285 -0.39883951151510566 -0.540535209295964 0.399154327381431 -0.23934060859917144 -0.1774095966460919 0.19545036911218716 -0.49722466645458374 0.16222228571603936 0.5922452065608047 0.36776830681138023 -0.14223487929925133 0.28271722207492606 -0.1601350101051062 0.002039893694293967 -0.2898230485744137 0.3536698458337033 -0.3786682343964003 -0.24149162204012883 -0.013812376248513742 -0.3346906162953559 -9.2737712182584E-4 0.2945574454211504 0.031023863686630685 -0.0373445639188627 0.3970038324826126 0.3244010483395075 -0.33461096607211765 -0.6078300993884498 -0.13903926561254995 0.19429121626812376 0.20079523701571042 -0.28532984055481114 -0.6910690030211714 -0.48262589389256483 0.22937606066849434 0.31026771300248923 0.6973052118075512 0.0828304837307097 0.3086771541172433 -0.2202921618690365 0.09137945949143321 -0.2560462882485261 -0.6491110274040187 -0.2531048374637166 0.3661392030762641 0.3258924951314548 -0.19826840124983555 0.23470985004506495 0.13994525329638444 0.48905391793246095 0.002035482144271936 -0.40489202100433175 0.40796458759180604 -0.16556225761779048 0.01907715619911132 0.1464247380619717 -0.46449143651304664 0.11530375605768596 0.34497780023751434 -0.4596353128489087 -0.9879315434803786 -0.6293507608108254 0.026647073610734092 0.2409259247308711 0.06525611231922449 -0.49080828837705004 0.14769883981451218 0.1785611088246333 0.00939083166180845 -0.9330627175489093 0.2046022174488538 -0.43350944128611135 -0.31086415954587393 0.27240763183846034 0.014658336735499851 0.18517534393889373 0.1809933590378922 0.5453680462308015 -0.37955944138446257 0.30010193662403983 0.1749021210713172 0.20356949648878134 -0.7716066616668561 -0.8490477495015198 -0.08029143054283916 -0.23391125213434 -0.4224844106452761 -0.5569998003477379 -0.18076444966755312 -0.37327362956972066 0.408493870211456 0.7828637196111576 -0.0950564283295487 0.11887571122702556 0.2618218615087599 -0.23189067914659311 -0.4763319653354791 -0.041032784093433854 0.04605502277505964 0.286486935084814 0.20692125440398657 0.23712763694324418 -0.048250289017765506 0.04106540728892829 0.40394863684811777 0.19787732467970454 0.22880711676769125 -0.2835552894395163 0.16839503651391494 -0.2836694147335651 -0.14275902651411143 -0.09370867949579409 -0.18180485284890618 0.4227747060801862 -0.3753508742174965 0.20878653848006143 0.4918379003759085 -0.07296816348257354 0.4606344904974335 0.8151896084235432 0.7116157692904915 -0.5772894770029213 -0.4895901135274731 -0.3255543164327275 -0.17689869157360025 -0.15712323770503564 -0.10371548832768918 -0.44218944259062826 0.1793238902977088 -0.17659578445039528 0.24062900403951668 -0.05638211139687263 0.33557615832155313 -0.28225106191236976 -0.09522202539994598 -0.06374997272704773 0.23840040346456065 -0.03720072006714476 -0.4410308537356138 0.08102644035685111 -0.3380632781038387 -0.36231338255864887 0.05168030969641636 -0.07874071090379928 0.1947203649960075 0.37933472983827143 -0.10019782522180046 0.08403191557285264 0.5637636267479464 0.13502582231051555 0.46188874097591365 -0.005506470064040821 0.41672610283548805 0.028138630527555827 -0.11029475625632366 -0.4030946455508633 0.007858359939882969 0.2350604113245896 -0.06486952266162632 -0.004585555091970068 -0.48291240993726436 -0.011185825201483316 -0.13895552721697918 -0.3382066282549988 -0.011958317526299491 0.19472700901303205 -0.1457925389007349 0.09053604287957447 -0.15735715018597443 0.050899170742357926 -0.07375919335976061 0.25298317210545856 0.15863159006925284 -0.21028669198855546 0.14441222563645906 0.5620542253248093 -0.20645817845863207 0.7447502951880158 0.6434017102454234 0.005806934335138192 0.282074054740521 -0.32344364668433545 -0.523849762807142 -0.35422326362316936 -0.2203901849897046 0.33833203277084956 -0.12159978949036972 -0.2023846780779184 -0.1549311772742151 -0.2689736054462482 0.2996401404095629 0.19734943485174022 -0.3462681949900569 -0.41711970341263754 -0.6161055211636965 -0.4437186929652961 -0.10411668700764544 0.21360052320197392 0.8322034369492374 0.2784695274727261 -0.10191477021399958 0.031170498021638324 -0.13095757188901241 -0.36987946777273023 -0.07904407927558288 0.5213851549958701 0.8534474831023834 0.6723365381212921 -0.24291879090033092 -0.4407713619101376 -0.0051402052293541235 0.19990314084357153 0.1085424087700118 -0.45969929702603207 0.3179944607677343 0.2549341612318023 0.08979298711778348 0.3007430050494079 0.3653997984460705 -0.5870695577867225 -0.5525071572905937 -0.6693396983474763 0.08528490244357564 -0.3425333684592472 -7.010877798322839E-4 -0.30803796306108316 0.20008726651107606 -0.4413409815182594 -0.142393322138857 -0.02826089194183706 -0.5762585691500473 -0.2567120516443979 -0.14735005323355274 -0.36278679875646375 0.6419281439619453 0.6595698425589127 0.20343118254935683 0.14278018297276276 -0.21792608943003325 -0.019916042399390696 -0.460091206573782 -0.07485937651025763 -0.223967812494118 -0.3644439528278682 -0.4134758788834082 -0.37571134205519285 0.43750944054564694 0.2582296488796275 0.26899801289365627 -0.21790049905833123 0.1347946998548983 -0.14629098423308903 0.16514412142508528 0.38687514742142776 0.6660157356600888 0.44409496347641664 0.010608556034650971 0.30889847456387337 -0.5083374559256073 0.048006215191149726 0.23519275350216015 0.40226833062690664 0.6957246008020258 -0.30729603043978915 0.1939337824873981 -0.16161659351477928 0.016352631812722833 -0.10492890701958368 -0.5675607828397026 -0.27645181678580416 0.16545900739383057 -0.1265059929563213 0.21729182875430358 -0.4814671548082714 -0.29485303835471843 0.08699273787584529 -0.04254508539462334 -0.33708801989597825 0.022875118711096303 -0.6249975243329835 -0.7335695871494018 0.32646549309308476 -0.12514020956441754 -0.11995665645941782 -0.18821864653527984 -0.7528232225236919 -0.1996970838214807 -0.8282565627948127 0.210667694961576 0.38746672172950725 0.27850857180028266 0.11618849909632845 0.5123377889026404 0.22614520014518874 -0.09509253146618331 -0.04114188037156996 -0.3782817142476148 -0.05903178495467254 0.15728779923239444 0.12540882072835013 -0.1872126721248473 0.1285932289141411 -0.5153819685843991 -0.2500099885056013 -0.8234447324691649 -0.22325479362681638 -0.7873779562272895 -0.46891801142189526 -0.9392383566547724 0.4232697077923777 0.16118165895460454 -0.6550443129588874 -0.9783077119820112 -0.2292997025040131 0.5061563173685739 0.28196814415174215 -0.12967671099960226 0.17593743467435946 0.21508630726249697 -0.10903222730571274 -0.12615530522686316 -0.443000931444357 -0.7214071437284818 -0.15786034963988765 -0.10033938052677883 0.45309569799712246 -0.2022244180702849 -0.42748356051913367 0.37553960200150427 -0.057488301239262345 0.3655633913695048 -0.21695646671521837 -0.2946213136226752 -0.3513393008386447 -0.47235201047280917 -0.3765952754578413 -0.33214112402494106 0.4132332975789933 0.22885596616049916 -0.5912790442613602 -1.1624556806274744 -0.038413849744367866 -0.1845703616053561 -0.14992336051161204 0.6094020947632502 0.5798586676938932 0.13955468864190101 -0.0038159175479116217 0.24801621558785758 -0.6002325012969539 -0.1615728517522189 -0.3263906502290002 -0.3834687595120789 -0.14157564771418496 0.3756110150887948 0.47769305118954186 0.04156035412688249 0.5303484621581575 -0.4063216757486091 -0.542801449830714 -0.20502856753340984 -0.06374913953598325 0.14552501270383233 -0.1323068182159593 -0.564447382904138 1.0138256644330474 0.18478793360147422 -0.2531085437892766 -0.0691270459987108 -0.8763199720673458 0.06976874435165382 -0.1250821092281621 -0.19402247605194525 0.8504971275985043 0.18035284763232604 0.12942171727651544 0.4658405610080738 -0.37846403195497136 -0.5923359055920298 -0.2615974718459577 0.08149747241954532 0.23949067893339526 -0.46089810104525486 0.4810635340097227 0.034578896649139636 -0.12181088932125758 -0.2095954539890174 0.24408158310010042 0.10554523923006054 -0.0015510835565322495 0.06989471850115388 0.005907357008359741 0.12693228331010922 -0.133425425282592 0.48568920645105024 -0.4927207794548249 -0.4285041895001216 -0.8296661709348063 -0.07064718314250118 0.5075795343996511 0.1708869052379566 0.5261911875212603 0.14501558011719945 0.47158251628069203 -0.3058223532125849 0.11662775977762248 0.4026557602130879 -0.27547406426856064 -0.34622469905453107 -0.32657016965595803 -0.33663732534692425 0.17593814642829775 -0.20896197169793385 0.5739774411803299 0.5295494418001557 0.4354695255046814 0.4888708502112657 -0.30169681985615954 0.17297663379512357 -0.24639951155428758 -0.04299140526065986 -0.2709347411240785 -0.43309953207530466 -0.7057676870794993 -1.1994183769670343 -0.52324441778363 -0.470839298274661 0.6207559919821701 0.5474543965956724 0.40825714069979147 0.06051750877854124 -0.28543621415142384 0.06421114162783158 -0.4233382165786541 0.03569283212600893 0.12922378157436562 -0.2879609358961127 0.1969669222868189 0.4675019237876967 -0.10946099978448764 -0.361701606737523 -0.06583494469551081 0.4201736179907891 0.30007394143880867 0.7797209610074255 -0.3338239072492054 0.2130662981139216 0.3694503199036742 0.029479877694188597 -0.1409957098787255 0.2030722579870449 -0.9224838739877955 -0.6141886248699922 -0.3695110113196613 -0.30656020847324655 0.5003326310639319 0.4297030582862414 0.4953709839790604 0.02203602256718911 -0.19825063274321697 -0.37344123380670774 0.2452584378647707 -0.5274832065878834 -0.40846579521941095 -0.4348091564943568 -0.014185459847186721 -0.11819013167003906 -0.24548208492057388 0.2979610344043049 0.2563270376982166 0.015475155587997965 -0.08746345183728818 -0.38560505134547624 0.6461824394575885 -0.04712105806620574 0.32385294593866515 0.28655654338298525 0.4316308039681463 0.1669740143319513 -0.6139998268411028 -0.7947259688936213 -0.08930090301615333 0.5768458381835082 0.5905386975515132 -0.378547899888913 0.014114088741306608 -0.38331584237449523 -0.16077910884247487 -0.09228797630791426 0.2847999904538158 -0.2888937745941553 0.1433763060722016 -0.27466459458317344 -0.21571121507616375 0.164945871031574 0.0013267346266746527 0.04390594767964562 -0.4235657556542699 0.2543681495402078 0.09025468097802894 0.3366883675942077 -0.10435281545137602 0.1668997085381907 -0.1742303099985832 -0.3257736831097323 -0.09264939700541042 0.03837558933191146 0.08842044892280922 -0.14676261606162008 0.16592705580182654 -0.09670934558795734 0.006770733036782952 -0.4558688976519265 -0.38231468181112416 -0.6594315655812399 -0.3036831768996159 0.15313185149034286 -0.21231213471495375 -0.2791159337151228 0.38451875581315315 0.4401562598223314 -0.415003226807569 0.2711259354300517 -0.4771354324592472 0.00781294358667195 0.0325569718976213 0.34319338515131764 0.43865496017588573 -0.3650105119123581 0.1986632575911232 -0.34740965336754065 -0.5702076038717289 0.12326748950027457 0.4381011942425502 -0.5512144699370556 0.3553777745510932 0.405860244657488 -0.20247897819813412 -0.13581193685860019 -0.5748025431456255 -0.2081268037491348 -0.12625583696148832 -0.12939364287384042 -0.42605709146298354 -0.17591867063070601 -0.43726531667528273 -0.06588356908811 0.31447127692222476 0.3492270822633565 -0.4414758622942493 0.4673102054467233 -0.3258347115539662 0.4880585264845587 -0.1457713707620495 -0.45555165615240456 0.24438114802241864 -0.5009354386249628 -0.3371440735971911 -0.4993802711526799 -0.42364102864314795 0.40635287657469044 -0.4776622899307362 -0.09960305292120747 0.28253138826096336 -0.17204995387548744 0.3376328848725609 0.3168519287905749 0.28511361759556525 0.043407455263348736 -0.24800901324235566 -0.35419925932595797 0.28675430480332326 0.32332430922410993 -0.07836479856359735 -0.4085381623260725 -0.32300201587801175 -0.4896014888250849 0.23312252610499928 0.2003904659742648 0.32808503720018334 -0.1974938397453796 -0.45395367737526343 -0.039241000770004086 0.006949047005596509 -0.1346797752571245 -0.47112874846550307 -0.0753619443119547 -0.1744638807787317 0.1289630796851602 0.3014779894822982 0.16725623542122195 0.006193297006469264 0.36299732055584455 0.3179757281138911 0.4849309106149339 -0.10466229685467837 0.49997661659893367 0.4995146751150401 0.3351441476985966 0.20955575477275856 -0.3007184971358096 -0.38290144655063313 0.03709178459213003 -0.4448710507802724 -0.3260914121600437 -0.07560289794861452 0.21437764212545662 0.17998972010742498 0.25754470047984324 0.04055857518076078 0.4908496814977603 -0.01729473243454932 0.20632815476764882 0.06379045226098139 0.43165844877936316 -0.23062807377485242 0.363436175878667 0.04545239814718246 -0.24889949860831004 -0.23079631997676997 -0.183944098673632 0.4610169512513783 -0.25494143922090956 0.3625520957871941 -0.46189071030906814 0.20572064194310213 0.01674357266665693 0.1540341425427572 0.3416833231732618 -0.25891359783232293 0.3221461030821422 0.14276523362654514 -0.2576624264359272 0.4149940445476398 -0.08241070029569803 0.30244250816321516 0.3902758922093461 0.12016742530666158 -0.10744249374420423 0.30396839448031154 -0.4119256716620188 0.13706169931777118 -0.10655979656387185 -0.45415099230916856 0.30645077685323047 0.5849772870683254 0.1240826132506243 0.3249113870845074 -0.1789042331809095 -0.08316363680149992 0.4421634525400077 -0.2977482469344766 0.4639563529580712 -0.1745265810088121 -0.14938844978680882 0.3388283558708393 0.031079448813618182 -0.05956235743181233 0.09147696217860009 -0.19934846159322453 -0.47914637966228657 -0.11571195128527678 -1.628544974784374E-4 -0.05010866161607502 0.4607018720249013 0.09674627816887027 0.15031410015043373 -0.45285968671869575 -0.14768986866937425 -0.4391959334823427 -0.4986803376451968 0.096087014224962 0.1874504019579478 0.025062755538799948 -0.46294205528785776 0.30411131160100496 0.004559524530876632 0.4111073962828505 0.4760844316860004 0.2209136283626286 -0.1762304831628844 0.42218952155444084 0.19706579082960535 -0.27394237035896224 -0.18538171901016248 -0.2577583823016237 -0.2772419846652241 0.3226520157261771 -0.269139432750074 0.08806982476409797 0.29961452672293454 -0.38664358643508573 0.18514627134261777 -0.2583301155861739 0.1314011660034416 -0.5329990800268043 9.183113668025644E-4 -0.4455827967547545 -0.36479876645262044 0.20618700308741833 -0.532204740907304 0.12232197263386546 0.1841765099823235 -0.21789812477912895 0.2162130079248623 -0.19202052263969574 0.5604490366393015 0.3871780439576791 -0.08880948713166976 0.21829306383497554 -0.10887779197186247 0.44016463672324807 0.575305201304636 0.33638496419001057 0.5408185472504311 -0.2300595631865138 0.10863561003275829 -0.21176640087631787 -0.07871606907329248 0.3251177020968138 -0.2275560952180233 0.4475904686505823 0.2830026413553773 0.23225194229235782 -0.5510543048621689 0.13018406570448585 0.04662032787051898 -0.5091904703860283 0.10198543390388531 -0.33438811235439775 0.38205356540678714 -0.9417835384726939 -0.1005570647360345 -0.8458611117506286 -0.02477628528760883 0.02819585368749236 0.11835062113811805 -0.27230934366504916 -0.07413720926108419 0.19933578532880714 -0.18617249705616815 0.27210351030269714 -0.3441455348941753 -0.3817769292042097 0.3074574324518143 0.4909227071199555 -0.3977355134955271 0.2134024373743536 0.07631226660714725 -0.23965098803500517 0.17925185740323196 -0.4609094187755557 -0.1960711599624224 -0.8147935111231857 -0.7275044549699041 -0.03890439341759757 -0.275284275187133 0.05747506466586446 0.39245326963653 0.4989334114140636 -0.08787101853398098 0.15553395882050802 0.5973483419184761 0.09845047431778155 -0.07945658462352768 0.3309141918304354 -0.22358563637220727 -0.18860467936340009 0.07623731844600203 0.004347220645670395 -0.28066759400694063 -0.1802331464254125 -0.01081732712569466 0.08781035555523929 0.3302194629728241 0.3190366142318021 0.17796072631169102 -0.09941975950832672 0.15439519060884782 -0.36772665960198114 -0.5209090993013232 -0.4521690010890634 -0.438240239504877 0.23880750446094012 -0.05583451469754415 -0.6943630072887039 -0.3287331577832497 0.3023732978019341 0.17709082728712428 0.6440726355059446 0.5607171924818742 0.6372006523530311 -0.15823732055857231 0.6280067720164748 -0.3655061304334015 0.4866328636736256 -0.01994644214698555 0.1848932021451145 0.11644420702399058 -0.14846556704519642 0.46778364487499174 -0.39468265746363884 0.2102171183047051 -0.41273117974581774 0.06601029096612863 -0.3761274724435262 0.6726002590794837 -0.5396040217837392 -0.3496489282498199 -0.8142937953301651 -0.5692876840306388 0.10922223635506642 -0.3810588373813155 -0.09684413049336975 -0.8751564055638773 -0.014982994198723808 -0.061984697501925694 -0.02973121092873872 -0.1735633079960521 0.5986195979255702 0.42397819075359056 -0.045530307749564895 -0.252929680128828 -0.11115360385383011 0.2167395182269623 -0.39345744061222654 0.07664691156271185 0.29570635524823113 0.4122050951548314 0.042904797923077866 -0.4184813315699096 0.30020439730430104 -0.25116211711190983 -0.2763530739149353 0.4362812868992956 -0.5134124468755265 -0.3308476197518479 -0.4529082160081599 -0.4530122838624307 -0.08136249078466393 0.4801426285554613 0.1884714581966762 -0.9763899927892318 -1.031884767148447 -0.39175302749803015 -0.2752124634836082 -0.7334168262802466 -0.33719534859687367 0.10034168990983297 -0.159528274724025 0.8189734229109388 0.2384774506511306 -0.2562539658796765 0.6097415182826019 -0.14273321109967121 0.11758169326307227 -0.24985091175056073 0.3963369762620326 0.38663042693082983 -0.48765650164391117 0.18798076079037995 0.5351293796168456 -0.11153777717124684 0.18918304597072355 0.28024725357549884 -0.4189571034648068 0.3767318935172811 -0.09647838647066395 -0.4232680887943051 0.35438195087433944 -0.11514512474161112 -0.8523950421509058 -0.5720783956414532 -0.6044078599041772 -1.4966483789241216 -1.1420926725371665 -0.37715261447963466 -0.3438759518716485 0.19534517911149044 0.3668408486594119 0.683759889079076 0.5274911516816688 -0.18452108034693007 -0.38163697183507606 -0.5547018735264364 -0.38423515514390666 -0.21098417075696274 -0.10141026956640385 0.33429468223838066 -0.2361973339970275 -0.13586987827777025 0.5724496322446698 -0.08087658615370852 -0.18452442358052373 0.45596819169395836 0.6411720076034145 0.07272237131179114 0.5664034903113875 0.8059076211588556 -0.5022148417447998 -0.9980356990760979 -0.8879657818494534 -0.7770376659495793 -0.5852853246984213 -0.019880275372791772 0.16765120230370015 0.11884251320242739 -0.22052276461098966 0.17577321468334633 0.5253127044386742 -0.5229654482834438 0.22402684663163253 0.012370022798881681 0.38095881345488253 0.028740914349476007 -0.19580393643189437 0.21351907629856226 0.3966132777074423 0.13473007101137643 0.596904149893731 0.2354308855438316 0.5671522699801395 0.678150356473757 0.23945912327343943 0.8810697506238324 0.6279630855550973 1.2720089781436346 0.8437648009574963 0.23241550465955696 0.42465717158686594 0.9427425569782709 0.20549509187803466 -0.13449327071028266 0.9776581596098697 0.9986066147912677 0.882723646993782 0.1448571537969349 0.2596056293425961 -0.1986287999647061 -0.18319870900292803 -0.10089200524927425 0.02541174561214755 -0.44443306287438467 -0.44022856762387963 0.40015277615169215 0.4746564102805639 -0.03256253204643114 0.5406017023768953 0.20244328347701745 0.7154026934107203 0.5108914922591284 -0.05395236754643529 1.0159422609705195 0.9660131605400376 1.2000059219854016 1.5121139827881729 0.6558234734011178 0.4911215261286402 -0.18441315431496863 -0.19870958225316207 -0.13140687657692895 0.7816603164632815 0.8651825865745184 0.303576285985006 0.019115668380726286 -0.011033829343607212 0.20707036373608828 -0.09890628723770441 -0.45524786176464066 -0.06954767733664392 0.3967971377817292 0.06341905934531787 0.1442084690196045 0.40540133051420274 0.015813499797526363 0.16792958460381183 1.2069491340117382 0.5194722889897525 0.3232253511380984 0.5610931697656156 0.2717919660766909 0.4739846902727694 0.03748446177769871 0.9271822594368846 -0.3854750540555297 -0.4287557701865922 -0.36349034455449364 0.3174060493400964 -0.39568487255566714 0.015161836447600925 0.4367859650660708 -0.34561008984322134 0.6105345969568282 -0.3174291173300154 0.5304260864194804 0.31827194574529255 0.2569065691961053 -0.44400035731111176 -0.2424028958530517 0.4622603120453836 -0.25336974995741174 0.036128689172714626 -0.00871285174885174 0.22850906606995003 0.8549634736367366 0.059234620907480565 -0.565506482100956 0.5045233156978953 0.22472936541929348 0.7094667301521022 0.0246236154611706 -0.6909225176901684 -0.19913514435166166 -0.39808730297054046 -0.7848033594154915 -0.08738155845264324 0.42456367726267064 0.8549659361520027 0.4088006379934152 -0.6567303184851094 0.11747090614416918 -0.24207393540922587 0.42516203629766897 0.14434558911948378 -0.045256070538225564 -0.3866926173208454 -0.09873532465042939 0.39119476756829263 0.3846851294517293 0.1199643451379431 0.5908147623716997 0.8214148487646745 0.2675104570688719 0.059088109007337485 0.27785886897928347 0.05555018665923645 0.42822268559181653 0.05334790960753094 0.226312233198811 -0.22962889862444869 0.029459399532554522 -0.2261343358122828 -0.26711056458920374 0.12356476090973788 0.16656592616086333 0.6359419130073746 0.1309358532041131 -0.6725334879752305 -0.5403395415298318 -0.07011276509690197 -0.13771655910725208 0.07041643199684176 0.001104343659158275 0.4232155529084725 0.263217091918453 0.07784612570445222 0.12046632882081225 -0.18527027148867842 0.23249163622784694 0.012320559786349772 -0.5046683477228484 0.8055551503113296 -0.40017249763360146 -0.28163502042310457 0.3112995474799617 0.6293328089773449 -0.2832375222331878 -0.2744047114752052 -0.020345650524447662 -0.11887538423223182 -0.28614202805309974 0.7917815378978942 1.2074773174127595 0.1622338305122534 -0.06535937998915949 0.29261532188038175 0.026732611750960457 -0.03364625191684218 0.44391909767534216 -0.26825757406230305 -0.10651571136782689 -0.2674281993409225 -0.18182183017050702 0.15937891400914114 0.10751839571665993 0.5474152925372188 0.03691711736110946 0.5994072598047134 0.29452332855724483 0.39183102361561506 0.21266883679883142 0.05410439272717815 0.1629770708380566 0.005591078659419925 -0.9271399701594762 -0.9967235252107011 0.15094813672277296 0.09465139042019449 0.26193077435589823 0.4425327508948106 -0.13798779887135781 0.6574498708266397 0.28981629124514574 -0.04848236029465721 0.01465554575929357 0.3244900004734087 -0.005460060770507451 -0.30085664271008355 -0.20025675371793356 0.4455912043715741 -0.3026341345648745 0.18172693296772924 0.06668893545675608 -0.37176265080597587 0.18055354867358156 -0.0286710310703882 -0.7597522921146157 0.287060095371128 0.3062633878149044 -0.10754246172665136 -0.317145671768013 -1.035325099298534 -0.773743931302614 -0.9721634052672076 -0.7422376617454529 -0.3221473034780897 0.4294301047859006 0.3420270501762408 -0.02362154695599953 0.4227658280778434 -0.07512168492939424 0.03882440040293175 -0.11112588599832186 0.08993190253401816 0.10344331251704926 -0.06146282539757487 -0.38912203455955996 0.0216419027803848 0.05567977605185659 -0.0911064437615149 0.1693925317770802 0.07057355635580087 0.4229651610026785 -0.36166261277736805 0.31816771803942867 -0.25197176284814343 0.07526103737073467 -0.8081488327473476 -0.2341886956184095 -0.6741758899802105 -0.34503460520900425 -0.12150217288237809 0.13834973138283196 0.3128482014771499 -0.045240607024459735 0.2283222676783255 0.7296874007065292 0.03013491630649343 0.7510816740336915 -0.19954522789851 0.396605743725851 0.22741135131139106 0.31488202721713426 0.20014531088358917 0.33966007941659204 -0.26327923839840767 0.1888886396746816 0.4198761030160564 -0.021308968163060417 -0.3042318418686224 0.15531619789657855 0.28261700552900815 -0.10339283444614357 0.25135171033725645 0.5795439525507063 -0.548166429525331 0.10878617187956496 0.020146054358644732 -0.07323892438768911 0.1617128734268993 -0.6876835014357006 0.26089082249170537 0.07521675134415032 0.5388485618770956 -0.11197296057549633 0.22650187340614253 0.19209874178661043 -0.4564579853832612 0.12745108616155368 0.19763787326442206 -0.4791098903142359 0.03942763766371569 0.40511230361895695 0.4454392328677974 -0.09918216571594896 -0.1668285855532617 0.37502197430134177 0.42057514162648474 -0.41982204878251445 -0.42686876668730034 -0.16590043749890665 -0.14905250726765298 0.07057160961630601 -0.14103585475278343 0.17270182518270336 -0.1006259993324719 0.42377916399657267 0.5560660677148295 0.041652050427230546 0.13336456093091517 -0.1535404980145306 -0.09954694025106493 0.11905230691164968 0.45355220403167745 0.21084978373296534 -0.4996528724820255 -0.2843483222420023 -0.0033730843786989066 0.3789095231974942 -0.10680734936094674 -0.49275240132146236 -0.49791305658898255 0.12053687907368771 0.024959424841673128 0.4155732511013263 -0.040767661882278136 0.28592859921960684 0.23126083836126074 -0.44234033962886765 0.4500879636727284 0.08776672653128392 -0.012828180039272417 0.8783220723073119 0.7075085456440642 0.14062770546868375 -0.2865037315936331 -0.3773227723914814 -0.23510635856136816 0.19839052796627066 0.41293173596869936 0.2641135681825842 -0.4222314019293316 -0.4427417823553162 0.1875500742525072 -0.12392775652621559 -0.11168243051728842 -0.20830380393186582 0.07815907353172845 -0.3401556976913198 -0.07485008402613486 -0.23045306612603278 -0.29790648602593894 -0.03284663832956706 0.4757043932150493 -0.09990718871823427 0.015433132788979377 0.4865613024893387 0.6367106171629345 0.6267176524519428 0.6201602126103533 0.61643650177145 0.43695854304225634 0.06893287339446003 -0.1337277461652072 0.6575408472473643 -0.5545759695774184 0.2640822410035594 0.3340241215513721 -0.42141486382555626 -0.1137039805824304 0.24912300020110562 0.3076107634466585 -0.27183632614531805 0.11016265582661185 -0.38524899004610424 -0.3233726272728571 0.28964031399949314 -0.16703231043365974 -0.12103170113366307 -0.29357603709243585 -0.22513007701614585 -0.05641472494996557 0.08689659775780716 0.5715248987618643 0.4794426477800614 -0.12902230064322057 -0.4875648728140195 0.41521374761973007 0.054546967113354536 0.4188322442832352 -0.02458560744362188 0.5131965675220165 0.47255562047804733 0.4560392931382548 0.5314205286723861 -0.36972829362024867 -0.5578512940392412 -0.5594812449845112 -0.4557315988609535 0.2291590125507664 0.07680241595381615 -0.23189638117015401 0.40982845706742754 0.1291633939026755 -0.21815788840474393 0.1234208180888553 -0.0432720851783967 -0.43050168235553965 -0.45311093677834274 0.4217586427015618 0.4132827078495136 -0.319380466991858 -0.07117672522319482 0.4011385034708826 -0.2789556284158967 0.42362228732129636 -0.017441443138892072 0.26456458015989365 0.027525137573377125 0.5210841031135244 -0.05026246967681887 0.4146040144203401 0.07755357577896894 -0.39618855663661195 -0.02448989158178141 -0.4816544218315742 0.11792961412626399 -0.11068693550066604 -0.496275902107971 -0.14880652647911957 0.10202393723102032 0.4006462716242716 0.2735323126640302 0.403618371574605 -0.3952531363707421 0.31724889045532434 -0.44572855135049777 -0.16745932557230792 0.37515112631685055 0.027177909872371377 0.18156837190171785 -0.3486451397665684 0.34999206394906285 0.03126272294417556 0.07945582010324176 0.2681164808947399 0.4859746382596792 -0.01845219430685672 0.010586003461597448 -0.12434641692760806 0.40870274841271326 -0.4638677074214178 -0.49537933326720596 0.0038542006027059215 0.11836003808277723 -0.0604944995266044 -0.18553445553039954 0.3252831310959561 -0.09269002042468788 0.23199831922802405 -0.4074831862846311 0.16958543516183722 0.38612786725519643 -0.4753197408285588 0.3404664811350562 -0.12429370883928564 0.30962906822698977 -0.28617798313927567 0.2739480028518848 0.13652442240181717 -0.2066392373633319 0.0764087610584897 -0.3478146824542981 -0.37241543241680886 -0.2347574776729131 0.03974375784299058 0.3557953346210746 -0.11009001892272163 -0.3763249438574299 0.1517817103073501 -0.2931749706177187 0.4628149330418765 0.2572602185321109 0.41389958027977425 -0.46038524394244634 0.2667172088908123 0.16570600148822956 -0.28624923305832917 -0.4794400667203742 0.23595060998697703 -0.05765721161253995 -0.37944323346457354 -0.28130104722936233 0.20157745322941578 -0.03800489722085304 0.3854238412079266 0.45809633567058045 0.0571054563074773 0.3541135093581702 0.20707975162520495 0.25710518672609267 0.012616931667927158 0.10720230909276954 -0.25463562132682815 0.3399906703894409 0.44850218402504843 -0.41970799485941923 -0.2555830458267126 0.10859861215450223 0.4827938679469802 0.25730838597923844 0.3511549248886531 -0.06996933048765817 -0.4260129848807109 -0.361687227675524 0.0857031144919036 0.27957787023401615 0.4156335129718046 0.3604201304416923 0.44209002170553113 0.014156546897308497 -0.15842036308289542 -0.26247529148776627 -0.3366947226255665 -0.043436161130832984 -0.3142533969206555 0.49748906609026117 -0.28469290407054976 -0.32723825831496023 -0.1918537410831964 0.5857098104215558 0.07326336703852468 -0.09291042717440452 0.38938204557803796 0.24797462239856383 0.007418875565555439 -0.33655297241648574 0.009367506222262472 -0.2694333638854904 0.28623079966486337 -0.15794326048742963 0.17966556466144296 0.453591064635075 -0.20702733370601797 0.27532471382774537 0.4495322764360108 -0.20986746214236585 0.03962639948984659 -0.44392711085534475 -0.11237112765847773 0.0484118326435194 -0.36003425546840495 0.2606189774906795 -0.21332130563154758 -0.2918746502886658 -0.018122292918979467 0.3065281133532747 0.2072027152910334 0.7405845563095529 0.8730567829669312 0.5905853935615939 -0.04359085477820246 0.3492228434837646 0.12046630390971219 0.11809133135754789 0.174494048091673 -0.45131433634438306 -0.27208152906870553 -0.14804031610008953 -0.6241364086798216 0.24101990581126098 -0.20930035308133083 0.08957994399545215 0.1862110480007907 0.3111842948240131 -0.26866546059411256 0.4204372878392367 0.4233404622263055 -0.07153300641830289 -0.4691209759244255 0.1297969152835589 0.19156902080389462 -0.41864465946961327 -0.013252144798994933 -0.016876719255908428 0.6862814737873711 1.0421008593551728 0.5839504375042572 0.21956044128605517 1.4150012654367514 0.6656799993071775 -0.18303381210952663 0.30640951009366674 -0.146161454882232 0.5655909101100898 0.07140535895906994 0.4125898726251988 0.041020660661431355 0.34676195256603576 0.0951880577017426 -0.2730255907839929 0.011587491714797449 0.05039882685560593 0.40789284782517976 0.42113790767341597 -0.2980067154588447 -0.27991328614748945 0.2867017457022916 -0.1628580951902305 -0.21992618632531444 0.746052203155332 0.6942265213347342 0.26327553785179253 0.30795104753827646 0.6449174527341395 0.8362082120988071 0.27381756506655075 0.6993343929593966 0.28003211086279944 0.18836856552038655 0.06327658162648826 0.3986291742770979 0.2755192089251888 0.6352665835248587 0.4753970244116835 -0.29710488419333453 -0.11045844888145351 -0.5165328125504512 0.09840635508500487 -0.4713800032772331 -0.4510938001326258 0.087176995752275 0.35580505100363063 -0.5468523726659665 -0.23067508786077182 -0.050552663802272746 -0.11794848395616155 -0.42568049342130165 0.3323852694083641 0.20521333354322144 0.0780919625451731 0.8383143143202916 0.2122414833466925 1.2298470311724867 0.7601224783358249 -0.5555271439923145 0.09101421578972178 0.361460935673347 0.9237270461805459 0.05875754294974736 -0.0912404966157994 0.07429824054401042 -0.33857039056125154 0.10204885269243913 0.10670874363591451 0.13539784087588289 -0.24952141975499312 0.48592755536885157 0.3793306204709588 -0.27963037116431494 0.4700951268925694 0.030299310940087306 -0.7197265664595425 -0.6825531178752434 -0.06956809153596386 0.2279604980109993 -0.24043049936115918 0.30957854709049704 0.4773196177426019 0.8925931973725784 1.3075590159704449 1.0298192223957296 0.18556990715804053 0.3538218494535583 -0.2461656892189791 0.0872844058981316 -0.333309419128204 0.18682503167461348 -0.14823079202216716 0.028127919374161328 -0.157691646500111 -0.20182910697945233 -0.39697523446016 -0.3296745025589404 -0.1059708656356343 -0.03688609367157931 0.013152935522423154 0.2395377105377946 0.30283847661765384 -0.26858034504755357 0.30409507406422676 0.10581416462041968 -0.04234881659212773 -0.020734135342063958 0.4087445280321632 0.2538745424026708 0.0778139928417015 1.1666809159095626 0.3204249919364009 0.4157353852363619 -0.3353340242349845 -0.84315374754512 -0.6660611797778839 -1.3369107206872066 -0.3944861112419368 -0.7779265915819144 -0.7626408596828981 -0.2734992737250376 -0.14974745391266045 -1.1158541194053584 -0.19468594604655187 0.14035424687216064 -0.36598243457108187 -0.21227221032569787 -0.06253610604492842 -0.1160636547774959 0.5837264500864215 0.39792808136500096 0.22709435585243784 0.3968501477227322 0.060762472328948894 0.6219551976809591 0.3350215094647378 0.550717234020073 0.9250325577232216 1.0201682956607732 -0.2485176718368613 -0.8944544031965107 -0.47305924983521513 -0.49564637372253506 -1.5109449634920367 -1.327824228581923 -1.011079134799867 -1.5462452573087049 -1.2585465606145392 -0.8839609371438498 -0.7727420335724478 -0.7413937277310704 0.23589977679504084 -0.14647411439172695 0.4282727315931359 0.23038110546267726 0.022138602655616974 -0.27839094947831916 0.26803570567929946 0.21137828194561517 0.1717053032342772 0.3240327646258755 0.8354922922934716 0.6562064303917201 -0.20358950639025933 0.5058002652246906 0.2102895183238022 -0.33550882793792114 -0.129028919084928 -1.7133467968949063 -0.020169536356981856 0.07429359004671868 0.10964611376893624 -0.20635447719263902 -1.119981542531374 -1.0964395613401794 -0.8421591214358137 -0.8287034933252647 -0.906894586978716 -0.719319573743265 -0.38029267866634014 0.014366795358177023 -0.0938515103641388 -0.07560764764789707 0.13846621838655435 0.45123484550254994 0.489577346324773 0.3608182017539618 -0.2134956726896928 0.6269626694202866 0.12135204552337152 0.16235721162644198 0.779354860142128 0.15116713890327557 -0.2646164180072397 -0.012208201323395786 -0.5371998929646363 -1.0878243444373858 0.14331796697155558 -0.5795573415896803 -0.040649925271355684 0.02623779150913466 0.856710530104834 0.08878562322180994 -0.08806757521976517 -0.08124239204592379 -0.6320223148889759 0.4043210706554432 0.1297188362638046 0.40674021982026254 -0.2264038813031154 0.048927988303097546 0.023421959709604798 -0.47104681082752886 0.10483191020463047 0.40749497225228654 0.4855149717853797 0.5439439196706652 0.7950587726274011 0.3732492648874537 0.5640062851888649 0.5705227526739565 0.40002978723045246 0.033928810684630585 -0.9240549406874945 -0.7559196853265117 -1.1135506066517895 -0.6182583273512849 0.18439383529687192 0.4167091573548599 -0.2261242412792826 0.6311838966018284 -0.32082238603061763 -0.09353766093080641 0.036579824830800314 0.28440377587792887 -0.035366533188036335 -0.3366843360150376 0.061688058402000645 -0.2430114491999622 0.3986024265147208 0.39624273982138847 -0.43737217423005303 0.4369088613857871 -0.02517518632794072 -0.158481899740834 0.6862234041795373 -0.5669667859765902 -0.38595093198003655 -0.0027814313616175003 0.5495340706184896 -0.053519862640805604 -0.689172194456135 -0.7439872696664552 -1.7381822275511276 -1.0740439565923743 -0.011927134942456404 0.25260341520469537 -0.06623477600541997 0.237872528221476 0.3542325482147629 -0.3485987395982519 0.25856289876716415 -0.15563262062739167 -0.13425584985765143 -0.3392110307100854 -0.30141689486281786 -0.1449863785018255 0.3409366851454752 -0.013856763771630169 0.16756141352120754 -0.4449866702713491 0.034014575615928445 0.981676556903391 0.1216538659033153 0.11373443826719581 0.4385459413552358 0.6113270352642173 0.8878783298290135 0.009910000920610024 -0.6372326759646296 0.07156840728489657 -0.548758779418509 -0.7486044227064244 0.010878337441177832 -0.15709671602643122 0.7793592035985892 0.3996540404978343 -0.11846090660477125 -0.3677973562871761 0.5399379055697524 0.746746670494128 0.3896960930487966 -0.3517577898526179 0.18904052490834888 -0.2622514604836386 -0.10778911381876444 -0.19800168579987323 -0.3634791791372273 -0.49567173260832287 -0.08704399638232833 0.09710838134122637 0.3087727414064223 -0.06381721924171388 -0.005276546326429533 0.06570930827110293 -0.3087870310382343 -0.3819023967241298 -0.0841354707103597 0.141271484420344 -0.4482470777151511 -1.0023473970460548 -0.4284547968886617 0.10003489686333712 0.4249924262753002 0.11543832316736065 -0.5300328720233723 0.33866756906079015 0.09621749418900785 0.397183462531248 -0.3755320571426491 0.2945269915111608 -0.44151424806684886 -0.47568722922180584 -0.06767626822170192 -0.4233362832167094 0.024978233612285395 -0.09031992245067769 -0.2823090830327731 0.4658908699343076 -0.8448485971395079 -0.3861485510736446 0.17817639280157077 0.1651410134769974 0.01165763998997915 0.3601348910820126 -0.2069551618042252 -0.5219141030244969 0.20875260004643956 -0.7736775839626457 -0.38148645909205037 0.47885914806501034 0.5828974507211038 0.2839434597525133 -0.08361091032485292 0.3368858858618739 -0.45293331183527413 0.7293281357391466 0.5561375901815931 0.4092561544005958 -0.21963589591711719 -0.3839957329128362 0.29402342472252085 -0.09733797787403117 0.3351426911029076 0.011233417081905426 0.2804302209546622 -0.19481181708225595 0.029407733352106447 -0.45828666635050186 -0.3290698281125415 -0.9447597790516102 -0.5730520427086271 -0.015596538300859499 0.2748570406675015 -0.36882080970138653 -0.4249934991484029 -1.049163768008906 -0.26095651388216573 -0.12349081501834085 -0.2407491005925215 0.07847774533132962 0.12295028177252142 0.12215109058587018 0.11207337804290504 0.4261822535687017 0.20492578360068822 -0.505030053341498 0.1676219890701111 0.29252393646766073 0.1307447182521957 0.457200799261764 0.07310621590217191 0.42654576192125193 0.5294228662219168 -0.15863823139064337 -0.44814261185133053 -0.9513708242610531 0.09189986548591911 0.23062017176082555 -0.15308862797861256 -0.5346666023275981 0.06900525676433455 -0.365201822486049 -0.3726468160507221 -0.211957346673176 -0.17359796056371932 0.6122214869050081 0.43283303406959234 0.01511964957373906 -0.039289487188760616 -0.5237456006163813 0.37423075307765163 0.019935786893885525 0.3172717315800987 -0.31474890866005634 -0.144489115441527 0.3908672237063578 -0.4663334932829759 0.204444456360276 0.5211266269798377 -0.24484719889939208 0.4887388544709097 -0.27649302796847985 -0.4155314189942633 0.316651742669655 0.1796238424654812 0.38549287372719226 -0.19917101338563972 -0.0804771983298881 -0.3568310185255441 -0.5151577899487612 -0.3441206572207646 -0.5380058929438899 -0.15553883590136586 -0.043207881679659735 0.12314433581020148 -0.3706359827505853 0.44563127043129197 -0.11907613963098959 -0.1837652041581602 -0.4251871827084931 0.5004953857889849 0.26488962674812316 0.26391964920128 0.14590705188689607 0.3988993245358352 0.1855579685356273 -0.4119669297557749 0.11203433027285283 0.3560050717470774 -0.11589243597383457 -0.46937958621574405 -0.38992198016463436 -0.16718396617119485 -0.32418311658517185 -0.3647323778029052 0.14222766511989987 -0.26653215582388246 -0.5621659522372633 0.17387570747250186 -0.14512963099593126 -0.052522446700932535 0.4911065334421125 0.04619664179618119 0.5153358742297038 -0.3306350912001873 -0.5922532115605238 -0.16694739765875358 -0.14835061062881696 -0.3023565553430663 0.16376637967871693 -0.009786402024156595 -0.1534659952488564 -0.45532715292484144 -0.1113386493866225 -0.1990198220843456 -0.15635041733965388 0.06397437893741151 0.5994025249258713 -0.23602252877993032 0.1854149602515415 0.10368027419462335 0.05071138207740371 -0.41283001169914635 -0.6293929531087835 0.27614145179604455 -0.2764513724486672 -0.3844379722034752 0.09895256800398304 0.03586208751194186 0.24205328028920453 -0.07955540119709743 -0.06952112975823567 -0.7900438518987436 0.53815242251716 0.03505244299327534 0.05769032987912343 -0.12384528787253993 0.12538649681607522 0.4455463624715246 0.006667538017518626 0.07852339042185008 -0.1954130360166313 -0.27175551881205584 0.15385091550412247 -0.04741675930499893 0.6714425669450201 0.30922304074896095 -0.24418997816254312 -0.4830386948918048 -0.03924655584945101 -0.27897143822294096 -0.14406951163309858 -0.20379780351070065 -0.7012226818807908 -0.10940898940008263 0.4306798576442443 0.6804359356393673 -0.08989013814180342 0.01077151524846872 0.3717481672105912 -0.35805481023330726 0.04452843099555951 -0.18719617275878292 -0.08263011005573775 0.29258222400975403 0.4268915028011585 -0.4176227372412353 0.1832178592375816 0.01448141074826459 0.2302759981838408 0.0429261160945274 -0.11471790608301288 0.5434708905257719 0.2868977631037562 0.3631721524390421 0.10860001150281175 -0.06308362219888593 -0.0483634539996957 -0.7563422090051681 0.11640146125179247 -0.832612991732509 -0.350938337933014 0.05562433624395133 -0.06047296940493239 0.008673177482882466 0.5419493998935695 0.39131478005832687 -0.18012858032594659 0.06694494467906738 -0.7465331671550703 0.08566003234681606 -0.09758226655647895 -0.1081335545610805 0.21850288282662894 -0.15702929961127488 0.11244442905844265 0.14025900536545122 0.32493537887437896 -0.3235357293385993 0.3062914732257621 -6.479096950312225E-4 0.05053312810883242 -0.5510498429070447 -0.035027151845846656 -0.25064322887380763 -0.12150954021563455 -0.18097086261493414 -0.4527435791339883 0.1580468703813569 0.3205367147532026 -0.21116714693837638 -0.21430165124482561 0.1147545155181553 -0.2327769965926648 0.4445129494192535 0.620907919096282 0.40270555379247425 0.16627800594532985 0.36584018219543507 0.465772332522183 0.3046047550487035 0.27120726965890396 0.4618200385687052 0.16171022344144914 0.13443741243757157 0.4138138241973218 -0.46242400607278 -0.28089513899860474 -0.09072747270791821 -0.18864439145936096 0.14841299381148532 0.24719032772194793 -0.47881288425097657 0.3900529849220517 0.0027762309115676328 -0.5368653362381598 -0.5723269526083266 -0.18620953440231108 0.1391984033217367 0.06919891678375638 -0.1234585878979342 0.12719559434677863 0.20512444059885307 0.3418541791077169 0.6425642248883969 -0.18269705862521543 0.3658641075061437 0.4063000486429153 -0.36027863739208055 -0.12271015657144735 -0.07926616579488899 0.009169234380686064 -0.06634549017679647 -0.4568926819732967 -0.10311791635277245 0.20137550536111637 0.07294243797261339 0.46777249127269926 0.06815471148317286 0.2131175269769848 0.09102276750931171 -0.41288946314899583 0.1310127789020674 -0.1580729635879779 0.22614731015479472 0.20478552654041787 -0.3885313086944957 -0.27753137650695014 0.08201135546724654 0.6516570000360699 -0.13072728041296566 0.7010975465855539 -0.13986705178788036 -0.057700221881078824 0.25377659255121876 0.4477744269691137 -0.35793339432956506 -0.2260960615488522 -0.3049662594025542 -0.42654603118296025 0.34979231700165125 0.28464661013378034 -0.16051767358096414 0.2372786537740924 0.3030207383271359 -0.15748720202812735 0.14600062684406473 0.39430513556626207 0.1694360772968046 0.019174081164055813 0.48519543876372956 0.3425090380926988 0.3309274746773088 0.44553317060304887 -0.17078314555331423 -0.16273809934568484 -0.1447003490256032 0.330662490197433 -0.4414185019048157 -0.45072066429433155 -0.3271514664088898 -0.5239023859581878 0.3639121163290059 -0.4963764043056498 -0.049360036530351425 -0.4270173065997711 0.24397486845886962 0.19336294970594448 -0.06283550666782761 -0.20941528452055413 0.009412061718314546 -0.42204081426306245 -0.20947800539788675 0.3084856666333148 -0.43338720093701716 0.4997050895467643 -0.1852637898314906 -0.30629022208177625 0.12890258085713235 0.314809462494678 -0.11038928989393937 -0.32040686864462686 -0.18516380332244786 -0.2237903788731601 0.21805045785506216 0.21239823325405438 0.45530323347008494 0.16638389821859934 0.16735617847089834 -0.3684776329460441 -0.30974544181297425 -0.31983585798766156 -0.43144500954905324 0.2549142412868506 0.2626008357499896 0.05754821597918358 0.10970383916538007 0.09808441472900364 -0.39826798036898947 0.46651249980307874 0.04160381135771474 -0.1103217878442333 -0.3560482460282251 -0.3612332281305226 0.12615328381035212 0.32952393105737127 -0.10995607692565856 0.23821908251307103 -0.18582505872810137 -0.4009185782361026 -0.2298682213586729 -0.45114741575304135 -0.266967896438588 0.10150182050869228 0.09230526494292855 0.20243381167562047 0.33059895657492544 -0.4881257739469139 0.05788227891440494 -0.4418350996299329 -0.15812660716875027 -0.0196034811563785 0.16716377854129405 -0.11579717836642411 -0.4918502043841302 -0.31599424564051254 -0.39528417928671367 0.05838750906165269 -0.016068729132011777 -0.43942067544108504 -0.19979072883240603 0.4556490246470398 0.05472725954245201 0.32443351317992897 0.2512233616596727 0.07838525217992266 -0.3546635451660701 -0.14559008978649748 -0.22897500012839614 0.024757117862589918 -0.2376880379320404 0.0756247250235003 -0.08504088681505297 -0.3947846492387861 0.17663001010966853 -0.08264957802425121 0.3302978219406744 0.3129752129338687 0.2722868486138011 0.14726316932761263 -0.16099627657194365 -0.14925166372514637 -0.38276405607260805 0.26959354659235957 0.29203842972969674 0.11740850594759514 0.3353035252069642 -0.20249949351184449 -0.17356747316723856 -0.4211554839664002 -0.4442030996684571 0.004653794586689529 0.27890067885635306 0.2752176779975625 0.22612272657446514 0.6135244144468884 0.8096787823127514 0.30591739717371663 0.5494203535605311 -0.025938921438116217 0.5063484264090347 -0.06784238590686209 -0.3260013969573364 -0.493533145856593 -0.5505559488311841 0.10390817713566462 -0.40108858197401553 -0.3444935599476177 -0.3833747020811549 -0.22647765428025218 -0.36712249324112284 -0.12483513131407686 -0.03503821078687966 -0.13617603440649828 0.22027269147914885 0.3902667427298978 0.401126659104839 0.3408946270687269 0.0512813382756456 -0.3432500641088713 0.46813021897735035 -0.09427059904407027 -0.08544750191781705 -0.01968468560042183 -0.14411948874714944 0.27697477653391506 0.39627870254523356 0.036237328440348826 -0.08737752716650067 0.12000854523235076 -0.3812683144575167 -0.04349077262184031 0.10671141624773929 -0.4336748118769502 0.03986236824662903 -0.41208293169742066 -0.45688157364249626 -0.46253404920636376 -0.42064115373095934 0.12479656414858842 -0.055490683514772494 0.3111587175012635 0.044601635844640955 0.5006018015009565 -0.32855354237887857 0.5128486596254901 0.6246540287724804 0.3539593882721164 -0.2935057807483448 0.35908229672657027 0.188622833242721 -0.0759801666753199 -0.7353581269313121 0.43632528874011045 -0.36199183075421326 -0.1325405364589498 -0.1801854797466779 -0.4005053066389398 -0.6238159501594334 0.062407270118854746 -0.6280375142630313 -0.4919952462279231 -0.3063304077025622 -0.07288906894962738 -0.12257774287197679 -0.20890340990294873 -0.3234790335498544 -0.19898725831795994 -0.18266521936549626 -0.4294607693926712 -0.41909999936325215 -0.11998750465158642 0.46629700579889216 -0.24757745612682827 0.3462183576806155 -0.039982981113423 0.009972582255581262 0.37001060185398477 -0.16437468776475433 -0.41462660533477813 0.462545916486207 0.6183045324126212 -0.033220938199036036 0.5638550651825588 0.3561415749275656 0.02742133081918662 0.06312069528070335 0.585316466391431 -0.13403413624831048 0.28662872595583205 0.10877276006948484 -0.43249577205321854 -0.3418747054158469 -0.20187295505548172 -0.043050989136638795 -0.34990641763568836 -0.09556928787807781 -0.45437221208249506 0.39081393721952895 -0.3764104851501039 0.4887323622342673 -0.09898595555028816 0.10142068698735825 0.6870002213479427 -0.10853909023886646 -0.052966466922903306 0.3670775195876905 0.2845606324291676 0.6413301342303077 1.114736066667834 0.6292055825924494 1.0300516020948287 0.3854269541375506 0.11774093432559586 0.7725394412559758 0.4650099705838251 -0.08466645803234417 0.22506109199871646 0.013252732939671698 0.3673990681557902 0.1363640817069817 -0.22249635656097191 0.13314218012928086 0.4336936790593011 0.06974254315328024 -0.0983406737338925 0.4209330351045812 -0.2640495336978982 0.4230210933985753 0.5337445120118558 -0.1068048310820138 0.5169713834629174 -0.2669884767976722 -0.6161336187980566 0.3653127871589277 -0.4440629904447297 -0.08313726106562387 0.9857650586586845 1.0228692620699185 0.7153873179819028 0.5716975005832534 0.8471816422824705 0.13063252277117587 -0.12243698920680918 -0.2406143383885453 0.459488246114888 0.16020652442510017 -0.43836161198731727 0.5011639928793766 0.16800059104060142 -0.2847611846439941 0.2533510428541957 -0.3805001297051542 0.12987599925149357 -0.33193566261000906 0.2413435015860402 0.5978921486840582 0.2514025245064003 0.4102887566969162 0.3271555138875248 -0.09408795449984743 -0.38279344593433645 -0.547850437085324 -0.4189540472330272 0.19146335541451673 -0.17817119761112643 0.40915476709369275 0.1430693864367049 0.4664518900421857 0.04986688481109445 -0.3011335415481777 0.27724887488838507 0.28814977886054255 0.1751037336796754 -0.31022601881157125 -0.033756856671083864 -0.4164142905424496 0.4452672015491582 0.3762294038061541 